tree
version=v4
num_class=1
num_tree_per_iteration=1
label_index=0
max_feature_idx=12
objective=lambdarank
feature_names=piece_moved is_check mvv_lva num_new_attacks value_new_attacks material_eval mobility castling attack_undefended defended move_dist center_control move_clock
feature_infos=[-1.4405963092708924:1.5045944683151127] [-0.24219198568243872:4.1289557834964725] [-4.9445271635389076:3.4963257960053329] [-5.5780895844893319:6.4037384121798189] [-6.3438743363988364:4.9533150399449672] [-0.23801928051530405:13.604124210785821] [-3.3306329827324137:2.351894788620255] [-2.8247473803650189:1.8765280837816265] [-0.44882408276836516:7.4166175998531418] [-1.9337731572608707:2.2504997397126898] [-4.718641706027908:3.8967201623500238] [-4.5058733372358075:2.0416798766805475] [-1.4655021158102077:4.403396279758498]
tree_sizes=1869 1861 1872 1862 1867 1869 1879 1863 1871 1863 1870 1862 1862 1868 1871 1854 1859 1871 1886 1855 1867 1868 1866 1880 1878 1870 1875 1870 1855 1865 1867 1867 1873 1872 1871 1868 1878 1877 1875 1867 1876 1867 1856 1885 1867 1865 1871 1875 1871 1873 1856 1869 1872 1866 1879 1867 1870 1883 1860 1871 1869 1866 1873 1872 1883 1878 1877 1874 1879 1872 1873 1873 1883 1872 1880 1875 1870 1868 1875 1875 1867 1874 1878 1877 1878 1864 1878 1872 1878 1870 1873 1872 1886 1882 1880 1872 1870 1881 1872 1866 1885 1871 1881 1880 1872 1875 1880 1878 1875 1866 1865 1877 1869 1874 1877 1872 1876 1876 1863 1875 1866 1869 1866 1878 1884 1888 1862 1867 1874 1875 1867 1862 1874 1865 1885 1884 1867 1868 1854 1878 1881 1869 1878 1863 1858 1872 1880 1879 1878 1873 1875 1877 1875 1870 1858 1861 1872 1866 1873 1866 1864 1872 1856 1882 1865 1870 1890 1877 1875 1861 1881 1868 1867 1879 1877 1870 1879 1876 1866 1880 1872 1858 1879 1871 1874 1867 1867 1875 1871 1853 1867 1871 1877 1871 1882 1873 1877 1887 1883 1877

Tree=0
num_leaves=16
num_cat=0
split_feature=5 3 4 2 4 6 4 6 0 0 8 6 4 10 12
split_gain=21.7988 36.4128 11.6563 10.0116 8.96729 11.9588 6.9075 5.58097 5.28157 5.25187 3.70268 3.64584 3.38103 3.34229 2.52244
threshold=1.0000000180025095e-35 1.0000000180025095e-35 -1.3408333268751518 1.0000000180025095e-35 1.0000000180025095e-35 -0.38967562738322525 1.2413813877177178 0.80664600869102088 0.62103723503931119 -0.55703907599509084 1.0000000180025095e-35 -2.7823188995317172 2.5324887450141529 -0.718652267138154 0.83256050896067102
decision_type=2 2 2 2 2 2 2 2 2 2 2 2 2 2 2
left_child=1 2 -1 6 5 8 10 12 9 -4 11 -2 -3 -7 -6
right_child=3 7 4 -5 14 13 -8 -9 -10 -11 -12 -13 -14 -15 -16
leaf_value=0.0078709637170835661 -0.0028563363145632805 0.012000011207105849 0.0021263431583662244 0.020354575204924431 0.0069893938727627839 -0.002760732640078839 -0.0092056437592555936 -0.0034234457519950064 0.005669864189422359 -0.012675299091909547 -0.0039897762836185839 0.012566847838335062 -0.0026410191108637523 -0.016341650667923206 -0.0052188386612986148
leaf_weight=9.5824446764891018 3.7979612732015147 53.706418461137218 13.098123443312941 15.870682969049083 11.455592596495988 12.928530832054092 5.5292241777351583 8.2227726005658024 15.653644769685341 11.106397375784583 4.3632353989523827 17.247053722356217 3.4356244603986843 75.899794030148769 1.5004785523051385
leaf_count=254 84 1223 387 77 274 641 157 325 330 442 134 223 174 3047 79
internal_value=-1.90503e-10 -0.00277736 -0.00803803 0.011078 -0.00956238 -0.0111042 0.00250957 0.0088451 -0.0014634 -0.00638557 0.00693883 0.00975996 0.0108575 -0.0148444 0.00391802
internal_weight=263.398 216.59 151.225 46.8082 141.643 128.686 30.9375 65.3648 39.8582 24.2045 25.4083 21.045 57.142 88.8283 12.9561
internal_count=7851 7176 5454 675 5200 4847 598 1722 1159 829 441 307 1397 3688 353
is_linear=0
shrinkage=0.02


Tree=1
num_leaves=16
num_cat=0
split_feature=6 5 2 4 6 6 12 10 7 8 6 6 0 6 0
split_gain=61.6733 46.9103 51.2131 25.1221 49.6119 34.9634 26.7578 23.5526 18.6155 16.7886 14.5949 24.2365 14.2711 28.0813 13.1965
threshold=-2.5829319601860092 1.0000000180025095e-35 1.0000000180025095e-35 0.2730508697453915 1.0000000180025095e-35 -0.38967562738322525 -0.58163187551371587 -0.718652267138154 1.0000000180025095e-35 -0.2303395915844344 0.10879172098104389 -0.88814297574749446 -0.55703907599509084 0.5075655996724594 0.62103723503931119
decision_type=2 2 2 2 2 2 2 2 2 2 2 2 2 2 2
left_child=7 3 10 4 -2 6 -5 -1 -9 -6 11 -3 -7 -14 -12
right_child=1 2 -4 5 9 12 -8 8 -10 -11 14 -13 13 -15 -16
leaf_value=-0.0096724358140399553 0.00011006424802771331 0.0087588630099071745 0.019955251229089966 0.0074676741211123915 -0.0088157747918942118 0.014662050720530227 -0.025824806567223715 0.02026637993120679 -0.0046229527462245722 -0.021342689884220185 -0.0060319439969462856 -0.017506218101744672 0.0083895213324200173 -0.01059138820632231 0.010115969820437783
leaf_weight=8.4282688619568926 232.23745315289125 14.008042284287511 64.541318476200104 9.1551924035884458 187.8603947700467 40.741696682292968 18.160027396865189 79.155656963586807 10.088089801371096 61.559516583918594 24.120420434512198 30.554635026492178 77.811374225188047 38.533699123654515 43.845506621291861
leaf_count=71 2297 35 73 34 2563 169 163 268 88 940 83 161 402 344 160
internal_value=-7.97471e-11 -0.00180014 0.00709201 -0.00423403 -0.00659993 0.00196732 -0.0156553 0.0142632 0.0172706 -0.0126111 -0.00131225 -0.00915782 0.00578522 0.00176229 0.0043466
internal_weight=940.801 843.129 177.07 666.059 481.657 184.402 27.3152 97.672 89.2437 249.42 112.529 44.5627 157.087 116.345 67.9659
internal_count=7851 7424 512 6912 5800 1112 197 427 356 3503 439 196 915 746 243
is_linear=0
shrinkage=0.02


Tree=2
num_leaves=16
num_cat=0
split_feature=5 6 2 4 6 0 8 12 9 9 6 6 12 10 12
split_gain=83.4911 47.4351 32.4371 28.8891 33.0971 16.9683 16.2334 14.0573 27.7333 13.4257 13.9391 17.9558 12.4283 12.1748 11.7415
threshold=1.0000000180025095e-35 -2.9817058388774247 1.0000000180025095e-35 0.2730508697453915 1.0000000180025095e-35 -1.1460772315122918 -0.2303395915844344 -0.65234149473743519 -1.7594284532203053 0.68139740334760468 -0.48936909705607912 0.20848519065389773 -0.15737416017139985 1.0000000180025095e-35 1.0446893666318291
decision_type=2 2 2 2 2 2 2 2 2 2 2 2 2 2 2
left_child=1 13 6 4 7 -5 -2 -3 -9 10 -7 14 -13 -1 -12
right_child=2 3 -4 5 -6 9 -8 8 -10 -11 11 12 -14 -15 -16
leaf_value=0.018584030152924792 0.010119359521955281 0.0053140162363910738 0.022656100521496709 0.014330218510547214 -0.012249709554485493 -0.017332974346398286 -0.0054308240442258503 0.0047575190464095021 -0.010419209478895509 0.0076262280157354204 0.010384845673882344 0.00050384473282338632 -0.018013575450603957 0.00024161043087440534 -0.0089441306091479732
leaf_weight=37.854540033265948 60.788709847256541 69.702978015178815 64.18885600194335 27.100185863673687 233.22803827736061 15.742606329731641 35.232990350807086 70.858428183943033 114.79504383623134 45.308147267438471 45.947785027325153 27.859395396895707 19.082414564676583 21.133128945715725 7.9237805511802426
leaf_count=88 288 684 77 72 3503 188 310 321 1337 227 195 182 252 86 41
internal_value=2.46833e-10 -0.00288199 0.0126403 -0.00443367 -0.00696273 0.00212673 0.00443951 -0.00185425 -0.0046796 -0.00063137 -0.00419026 -0.000758993 -0.00886524 0.0130002 0.0065866
internal_weight=896.747 736.536 160.211 677.549 488.584 188.964 96.0217 255.356 185.653 161.864 116.556 100.813 46.9418 58.9877 53.8716
internal_count=7851 7176 675 7002 5845 1157 598 2342 1658 1085 858 670 434 174 236
is_linear=0
shrinkage=0.02


Tree=3
num_leaves=16
num_cat=0
split_feature=5 6 2 4 6 4 6 4 0 4 3 0 0 12 11
split_gain=66.2209 47.1035 39.7602 30.566 29.6214 13.2232 12.3294 11.691 11.6512 10.4815 10.4571 11.8272 24.3015 24.1875 14.5228
threshold=1.0000000180025095e-35 -2.5829319601860092 1.0000000180025095e-35 0.2730508697453915 1.0000000180025095e-35 2.5324887450141529 -2.7823188995317172 -1.3408333268751518 -1.1460772315122918 0.59582770906950022 -0.67643267676104302 -0.55703907599509084 0.62103723503931119 -0.86447035240859316 0.81401364907123097
decision_type=2 2 2 2 2 2 2 2 2 2 2 2 2 2 2
left_child=1 9 6 4 10 8 -2 -6 -5 -1 -3 -12 13 -13 -15
right_child=2 3 -4 5 7 -7 -8 -9 -10 -11 11 12 -14 14 -16
leaf_value=0.014159111351115845 -0.0092358025398099931 0.0059793868334914527 0.022895995115422025 0.015282731928397622 0.0017420860665540913 -0.010452499896015018 0.0061499159045984419 -0.013489200849178512 0.001811065775105051 -0.0028171256826909729 0.0017190010819297947 0.0081694217499017428 0.00085197923330001309 -0.025868339508398296 0.0026491964800235118
leaf_weight=64.411399230360985 17.497560300864279 43.338556728558615 59.653709400445223 22.995711971074343 19.871128067374229 17.522793483221903 81.514809646178037 206.26943187310826 132.26821394893341 14.412537164054809 80.988693267572671 7.7331409538164726 60.924642466241494 37.217123237205669 6.3641622597351661
leaf_count=167 152 332 77 36 201 204 446 3302 872 97 796 57 512 537 63
internal_value=1.02743e-10 -0.00262818 0.0112864 -0.00447481 -0.00711372 0.0025945 0.00283313 -0.0121337 0.00461033 0.0110874 -0.00201747 -0.00401703 -0.00795802 -0.016851 -0.0219867
internal_weight=872.984 714.318 158.666 635.494 462.707 172.787 99.0124 226.141 155.264 78.8239 236.566 193.228 112.239 51.3144 43.5813
internal_count=7851 7176 675 6912 5800 1112 598 3503 908 264 2297 1965 1169 657 600
is_linear=0
shrinkage=0.02


Tree=4
num_leaves=16
num_cat=0
split_feature=5 6 2 4 11 11 6 12 9 9 9 4 4 8 6
split_gain=64.457 44.506 37.0409 31.9389 17.7409 17.6509 18.687 13.1565 14.4838 18.3346 11.7285 13.4394 10.4182 9.00972 8.89564
threshold=1.0000000180025095e-35 -0.98783644542034821 1.0000000180025095e-35 1.0000000180025095e-35 -2.4597629578869458 -0.82287465440785756 -0.38967562738322525 -0.086664540947680502 -1.2945092424454654 0.68139740334760468 -1.7594284532203053 1.2413813877177178 -1.3408333268751518 -0.2303395915844344 0.30817866032675162
decision_type=2 2 2 2 2 2 2 2 2 2 2 2 2 2 2
left_child=1 -1 10 4 -3 -6 -7 -5 -9 -10 -2 13 -8 -12 -14
right_child=2 3 -4 7 5 6 12 8 9 -11 11 -13 14 -15 -16
leaf_value=0.0082865124511418004 -0.013725628997143274 0.0039038557177517919 0.022828875250338571 0.0046546464134376497 -0.021634397671596851 0.0016410469732260052 0.0025445152131220441 0.003374781765182877 -0.017569338570560304 0.0049857740471737641 0.01203418731055763 -0.0095772835905154584 -0.0058416790395531019 -0.0018628795195718393 -0.015476051502707585
leaf_weight=115.33312747417949 5.2061491161584845 35.536375632509589 56.743337497115135 138.82076195767149 38.925905191805214 62.793313767528161 18.918376230634749 45.332476877607405 35.581325007136911 15.736287804320453 56.901239783503115 11.860559228342025 83.685957473004237 22.531263831071556 110.22692463896237
leaf_count=635 43 164 77 926 559 626 191 248 450 90 212 157 1393 186 1894
internal_value=6.36737e-11 -0.0026025 0.0113334 -0.00485036 -0.0085968 -0.0100858 -0.00775452 0.00084297 -0.00455493 -0.0109678 0.00306501 0.00528304 -0.0104758 0.00832472 -0.0118086
internal_weight=854.133 700.891 153.243 585.558 350.087 314.55 275.625 235.471 96.6501 51.3176 96.4992 91.2931 212.831 79.4325 193.913
internal_count=7851 7176 675 6541 4827 4663 4104 1714 788 540 598 555 3478 398 3287
is_linear=0
shrinkage=0.02


Tree=5
num_leaves=16
num_cat=0
split_feature=5 6 2 4 6 4 9 9 12 10 4 12 12 12 9
split_gain=60.3306 38.6858 32.9676 29.2924 21.4805 13.6896 13.2111 18.9509 12.3931 13.9736 11.2759 8.65149 20.2069 8.63897 13.5546
threshold=1.0000000180025095e-35 -3.0813993085502784 1.0000000180025095e-35 1.0000000180025095e-35 1.0000000180025095e-35 2.5324887450141529 0.91385700873502473 -1.7594284532203053 2.1760432742113389 1.0000000180025095e-35 -1.3408333268751518 1.186108605079268 2.1760432742113389 0.7618508897369517 -0.24844101820207548
decision_type=2 2 2 2 2 2 2 2 2 2 2 2 2 2 2
left_child=1 -1 -2 4 6 11 7 8 -3 -10 -6 13 -13 14 -5
right_child=2 3 -4 5 10 -7 -8 -9 9 -11 -12 12 -14 -15 -16
leaf_value=0.014721605824155302 0.0031593811124712334 0.012082306658847391 0.022089988821307686 -0.0059146096032070003 0.0013337378148610289 -0.011962351804506766 0.0053382969784680949 -0.010696012598058002 -0.013892651710377882 0.0060420060387314928 -0.013641704467654489 -0.020122192833735727 0.0075811411618554618 0.0123426550810089 0.0053921447276736399
leaf_weight=38.855293069034815 93.768049664795399 23.112766979262233 55.211925165727735 50.649731603451073 20.851283826399595 17.845233515836298 53.758350351825356 93.457119437167421 17.019670833833516 20.79322892986238 162.77934776316397 10.437396349385383 13.779492288827894 32.530978657305241 134.94320932193659
leaf_count=96 598 102 77 457 201 231 577 1225 122 48 2911 139 47 161 859
internal_value=2.30586e-11 -0.00252332 0.0111232 -0.00375795 -0.00714664 0.00142019 -0.00254634 -0.00544961 0.00297151 -0.00395964 -0.0119602 0.00284065 -0.00675016 0.00415467 0.00216181
internal_weight=839.793 690.813 148.98 651.958 391.772 260.186 208.141 154.383 60.9257 37.8129 183.631 242.341 24.2169 218.124 185.593
internal_count=7851 7176 675 7080 5186 1894 2074 1497 272 170 3112 1663 186 1477 1316
is_linear=0
shrinkage=0.02


Tree=6
num_leaves=16
num_cat=0
split_feature=5 6 2 4 6 7 9 12 10 8 12 12 11 10 0
split_gain=53.2943 38.0233 34.7256 24.3259 18.1689 13.3891 10.8934 11.5529 10.5088 9.4435 10.696 9.20478 8.13703 8.09954 7.29462
threshold=1.0000000180025095e-35 -2.5829319601860092 1.0000000180025095e-35 1.0000000180025095e-35 1.0000000180025095e-35 1.288868650763296 -1.7594284532203053 -1.0058895908560317 1.0000000180025095e-35 -0.2303395915844344 -0.72305111396115451 -0.086664540947680502 -2.4597629578869458 0.51211371405869344 0.62103723503931119
decision_type=2 2 2 2 2 2 2 2 2 2 2 2 2 2 2
left_child=1 13 9 4 5 6 -3 -8 12 11 -11 -2 -6 -1 -9
right_child=2 3 -4 -5 8 -7 7 14 -10 10 -12 -13 -14 -15 -16
leaf_value=0.013479315705457788 -0.0030408288330964484 0.0011582662604124349 0.021934919827218402 0.00085512599853318494 0.010068942248707659 0.0076325019815841654 0.0020564475817911754 -0.017017099090291515 -0.016176848839991081 0.0062984889023019576 -0.012525812417461233 0.011347013986817096 -0.0073112338081690407 -0.00075105553207334961 -0.0028014238201428416
leaf_weight=56.409198919311166 21.790224792901427 65.157022701576352 53.573237081989646 241.78691616770811 3.4323167204856864 31.615940829738975 24.952085762284696 44.595719607081264 92.298451686277986 12.574197655543687 19.16157784871757 41.61195001937449 82.446512131486088 19.738949733786285 25.863459275569767
leaf_count=170 158 263 77 1804 3 337 320 784 1791 83 227 130 1318 94 292
internal_value=-1.27437e-10 -0.00237773 0.0104615 -0.00407165 -0.00722597 -0.00273497 -0.00510412 -0.00908492 -0.0116673 0.0025289 -0.00534527 0.00666156 -0.00563888 0.0101316 -0.0127957
internal_weight=837.008 688.297 148.711 612.148 370.362 192.184 160.568 95.4113 178.177 95.138 31.7358 63.4022 85.8788 76.1481 70.4592
internal_count=7851 7176 675 6912 5108 1996 1659 1396 3112 598 310 288 1321 264 1076
is_linear=0
shrinkage=0.02


Tree=7
num_leaves=16
num_cat=0
split_feature=5 2 6 4 6 4 4 7 9 12 6 8 3 3 0
split_gain=53.6212 30.8245 30.2329 18.6341 17.2677 10.0838 8.99371 8.58603 8.67253 10.1303 7.73025 7.32529 8.10132 6.5134 6.0519
threshold=1.0000000180025095e-35 1.0000000180025095e-35 -2.5829319601860092 1.0000000180025095e-35 1.0000000180025095e-35 1.2413813877177178 -1.3408333268751518 1.288868650763296 -1.7594284532203053 -1.0058895908560317 -2.7823188995317172 1.0000000180025095e-35 1.5020815044515299 -1.7656897673673293 0.62103723503931119
decision_type=2 2 2 2 2 2 2 2 2 2 2 2 2 2 2
left_child=2 10 5 4 7 -1 -6 8 -4 -10 -2 13 -13 -12 -11
right_child=1 -3 3 -5 6 -7 -8 -9 9 14 11 12 -14 -15 -16
leaf_value=0.011421582132649929 -0.0073390146697902914 0.021518100099254939 0.0011509118521142454 0.00035802690286672811 0.00099524773178438644 -0.0055100891428550656 -0.012840273787381734 0.0055897935285142723 0.0021623686247557315 -0.015862710912019636 -0.0042167964739355619 -0.012378390752283234 0.007240694133656609 0.0106954922157977 -0.0025499902121135631
leaf_weight=66.290584119036794 14.637595135718582 52.465245738625526 64.181098515167832 240.74839643482119 19.748464938253164 10.925508201122282 149.137530840002 34.186312627978623 24.926163328811526 40.33492700685747 8.6891858913004381 9.2297240793704969 6.3254823070019475 53.829185729846358 24.855748823378235
leaf_count=186 152 77 263 1804 201 78 2911 337 320 784 53 145 32 216 292
internal_value=-7.2105e-11 0.0106161 -0.00240374 -0.00395223 -0.00678662 0.00866879 -0.0112572 -0.0024155 -0.00442143 -0.0081086 0.00295231 0.00549598 -0.00468888 0.00832721 -0.0118011
internal_weight=820.511 145.176 675.335 598.119 357.37 77.2161 168.886 188.484 154.298 90.1168 92.7112 78.0736 15.5552 62.5184 65.1907
internal_count=7851 675 7176 6912 5108 264 3112 1996 1659 1396 598 446 177 269 1076
is_linear=0
shrinkage=0.02


Tree=8
num_leaves=16
num_cat=0
split_feature=5 2 6 4 6 10 0 0 0 10 12 9 9 3 4
split_gain=41.8976 35.2221 27.0728 17.9322 16.8954 9.27446 10.6459 7.58926 11.8766 9.52577 7.53249 9.59562 13.6089 8.64509 7.44912
threshold=1.0000000180025095e-35 1.0000000180025095e-35 -2.5829319601860092 1.0000000180025095e-35 1.0000000180025095e-35 -0.718652267138154 1.2100753905565125 -0.55703907599509084 0.62103723503931119 1.7428796952555408 -0.086664540947680502 -1.2945092424454654 0.10024838987905453 1.0000000180025095e-35 0.59582770906950022
decision_type=2 2 2 2 2 2 2 2 2 2 2 2 2 2 2
left_child=2 -2 14 4 7 6 -6 -4 9 -9 -5 13 -13 -12 -1
right_child=1 -3 3 10 5 -7 -8 8 -10 -11 11 12 -14 -15 -16
leaf_value=0.010973812890767643 0.0014862287888982293 0.021121768412977852 0.0030635566435769524 0.0035374668040008784 -0.0068864418586515423 -0.013407454562007693 0.011987087252867939 -0.015352301688729333 -3.9980085118089192e-05 0.0065075934509454779 -0.009112725460525781 -0.016581349221336 0.0017317055597420217 0.0071141481497721502 -0.0032153821764282497
leaf_weight=62.706663114950061 94.007309274282306 51.565246783196926 65.490172550547868 136.95055910898373 32.329655613517389 126.18392869574018 6.8118777247145763 37.38397664995864 77.586564062628895 3.8044956075027576 8.7208400443196279 26.170485303737223 26.339508615899831 37.347757088486105 13.746868228539823
leaf_count=167 598 77 740 943 587 2497 28 699 541 16 74 371 224 192 97
internal_value=-2.09128e-10 0.0093522 -0.00216647 -0.00365718 -0.00646765 -0.0109274 -0.00183094 -0.00210976 -0.00497861 -0.0124563 0.000607861 -0.00341306 -0.00858784 0.00296496 0.00834569
internal_weight=807.146 145.573 661.573 585.12 349.591 165.325 39.1415 184.265 118.775 41.1885 235.529 98.5786 52.51 46.0686 76.4535
internal_count=7851 675 7176 6912 5108 3112 615 1996 1256 715 1804 861 595 266 264
is_linear=0
shrinkage=0.02


Tree=9
num_leaves=16
num_cat=0
split_feature=5 2 6 4 6 7 9 12 4 9 12 10 5 11 10
split_gain=40.0316 33.2403 25.9304 15.7586 16.0412 8.12448 8.23211 9.29321 8.02371 7.46783 12.7153 9.52143 7.87993 6.22004 6.52213
threshold=1.0000000180025095e-35 1.0000000180025095e-35 -2.5829319601860092 1.0000000180025095e-35 1.0000000180025095e-35 1.288868650763296 -1.7594284532203053 -1.0058895908560317 -1.3408333268751518 -1.5269688478328856 0.054754697499758177 0.51211371405869344 2.8380126064405018 0.81401364907123097 0.51211371405869344
decision_type=2 2 2 2 2 2 2 2 2 2 2 2 2 2 2
left_child=2 9 13 4 5 6 -4 -8 -6 -2 11 -11 -12 14 -1
right_child=1 -3 3 -5 8 -7 7 -9 -10 10 12 -13 -14 -15 -16
leaf_value=0.013965209669757435 -0.010622889542536856 0.0207027888211978 0.0013981546268842147 0.00041414080624119963 0.0010499204854290936 0.0056415982192358476 0.0019888637409104831 -0.011431581281812946 -0.012281982667753006 0.0051892368519967612 0.013844881339665173 -0.010770614226182819 -0.0037650710291366185 -0.003053824534118863 8.7971035934355631e-05
leaf_weight=44.73468261398375 7.6875944854691616 50.843099338933825 62.153340270742774 233.277526314836 18.8206707816571 34.561577811837196 25.270135999890044 61.766661333153024 140.07203927822411 19.272248236462474 33.918491792865098 22.67621669312939 8.5063079465180618 11.862467810511587 18.172052262350917
leaf_count=111 65 77 263 1804 201 337 320 1076 2911 107 119 244 63 65 88
internal_value=-9.84698e-11 0.00922183 -0.00213421 -0.00360142 -0.00626949 -0.00205407 -0.00407926 -0.0077317 -0.0107342 0.00147395 0.00358498 -0.00385078 0.0102694 0.00825884 0.0105184
internal_weight=793.595 142.904 650.691 575.922 342.644 183.752 149.19 87.0368 158.893 92.0609 84.3733 41.9485 42.4248 74.7692 62.9067
internal_count=7851 675 7176 6912 5108 1996 1659 1396 3112 598 533 351 182 264 199
is_linear=0
shrinkage=0.02


Tree=10
num_leaves=16
num_cat=0
split_feature=5 2 6 4 6 9 12 6 0 4 8 10 8 11 4
split_gain=42.9654 28.7851 24.6533 13.1511 15.1842 7.48757 7.79492 8.76809 7.68156 7.34429 7.29361 7.08562 6.57955 6.15167 5.57746
threshold=1.0000000180025095e-35 1.0000000180025095e-35 -2.5829319601860092 1.0000000180025095e-35 1.0000000180025095e-35 -1.5269688478328856 0.054754697499758177 0.20848519065389773 -0.55703907599509084 0.59582770906950022 -0.2303395915844344 1.0000000180025095e-35 -0.2303395915844344 0.81401364907123097 2.5324887450141529
decision_type=2 2 2 2 2 2 2 2 2 2 2 2 2 2 2
left_child=2 5 9 4 13 -2 7 8 -7 -1 -11 -6 -8 -4 -5
right_child=1 -3 3 14 11 6 12 -9 -10 10 -12 -13 -14 -15 -16
leaf_value=0.010541818960428991 -0.010151268900457431 0.020415426587539653 -0.00077243373298356642 0.0010133882991324146 -0.0050834150243270941 0.0042049708512464663 0.012944194724468637 0.0045418390017266854 -0.017817132385115276 0.0060010160092387908 -0.013024320353354837 -0.014466089659426109 -0.0027358347278954149 -0.01273332114400646 -0.0089880692170494578
leaf_weight=61.805476594716311 7.3077154969796529 50.10699993930757 174.43723976076581 218.79825038439594 75.827257793629542 4.87734542507678 32.308973668143153 25.84232175629586 8.1995223048143089 8.6774457283318025 4.9256607610732308 80.188815818401054 10.261185457929967 9.2939002239145321 14.712467517820185
leaf_count=167 65 77 1781 1600 1321 39 86 143 169 39 58 1791 96 215 204
internal_value=1.61125e-10 0.00970239 -0.00219341 -0.00363368 -0.00608759 0.00220264 0.00429897 -0.002022 -0.0113406 0.00789906 -0.00348738 -0.0104868 0.00936319 -0.0020035 4.00151e-05
internal_weight=787.571 138.904 648.667 573.258 339.747 88.7971 81.4893 38.9192 13.0769 75.4086 13.6031 156.016 42.5702 183.731 233.511
internal_count=7851 675 7176 6912 5108 598 533 351 208 264 97 3112 182 1996 1804
is_linear=0
shrinkage=0.02


Tree=11
num_leaves=16
num_cat=0
split_feature=5 6 2 4 6 4 9 0 6 8 12 0 3 10 4
split_gain=45.9323 26.3038 24.5004 11.2682 13.8293 7.09193 6.61351 6.38519 12.4562 11.674 9.04987 10.7698 7.20641 6.38436 5.60227
threshold=1.0000000180025095e-35 -2.5829319601860092 1.0000000180025095e-35 1.0000000180025095e-35 1.0000000180025095e-35 -1.3408333268751518 -1.5269688478328856 -0.55703907599509084 0.5075655996724594 2.8284432849905961 1.186108605079268 1.2100753905565125 1.5020815044515299 1.0000000180025095e-35 0.2730508697453915
decision_type=2 2 2 2 2 2 2 2 2 2 2 2 2 2 2
left_child=1 13 6 4 -3 -6 -2 12 10 -10 -9 -12 14 -1 -5
right_child=2 3 -4 7 5 -7 -8 8 9 -11 11 -13 -14 -15 -16
leaf_value=0.012425808920166311 -0.0090793014319778802 -0.0021570530598894791 0.020063977563847386 1.0461103623731676e-05 0.0008998191239310353 -0.01182726838524484 0.0048635781959211642 0.0033762696151027273 -0.016684204905325493 0.0043402108141625236 -0.016569994980922924 0.0069936832302660091 -0.007121881092454198 0.0006916421855134603 0.010520884058517057
leaf_weight=43.547946495935321 6.6088461596518746 184.15936680254526 49.550527513027191 34.838248127372935 18.407242076471448 133.39393367897719 79.87222499679774 95.38137485506013 27.48482384160161 9.8685595620190707 12.080871969461443 5.0965323187410823 11.560454765800385 30.271632190793753 38.628144743852317
leaf_count=118 65 1996 77 304 201 2911 533 662 377 75 141 12 70 146 163
internal_value=-3.96261e-11 -0.00226223 0.0101425 -0.00374308 -0.00603887 -0.0103238 0.00296746 -0.000347618 -0.00277449 -0.0113861 0.000779188 -0.00957779 0.00377292 0.0082705 0.00613517
internal_weight=780.751 644.719 136.032 570.9 335.961 151.801 86.4811 234.939 149.912 37.3534 112.559 17.1774 85.0268 73.8196 73.4664
internal_count=7851 7176 675 6912 5108 3112 598 1804 1267 452 815 153 537 264 467
is_linear=0
shrinkage=0.02


Tree=12
num_leaves=16
num_cat=0
split_feature=5 6 2 4 6 7 4 0 11 10 12 10 4 4 6
split_gain=43.1659 26.9161 24.4051 10.3603 14.0938 7.60983 6.60318 5.90515 8.38299 7.82337 6.13655 6.7123 5.87807 5.74747 5.49059
threshold=1.0000000180025095e-35 -2.5829319601860092 1.0000000180025095e-35 1.0000000180025095e-35 1.0000000180025095e-35 1.288868650763296 -1.3408333268751518 0.62103723503931119 -2.4597629578869458 1.7428796952555408 -1.2180184485271899 -1.9494182483350013 0.59582770906950022 1.5641582270418264 -2.7823188995317172
decision_type=2 2 2 2 2 2 2 2 2 2 2 2 2 2 2
left_child=1 12 14 4 5 7 -6 8 -3 10 -10 -12 -1 -14 -2
right_child=2 3 -4 -5 6 -7 -8 -9 9 -11 11 -13 13 -15 -16
leaf_value=0.010860954954851218 -0.0062366769994040916 0.0030700895435132546 0.019798852743664486 -0.00044698311612140928 0.00061557501708615491 0.0054833272739748477 -0.011711344262007775 0.00042671826324929994 0.0033034982085473185 0.0064719614226668876 0.0028685809450525132 -0.016441485343535671 0.005739342790480057 -0.011364980010102671 0.004916908048127039
leaf_weight=59.848587462678552 13.244108144659547 19.130231706425548 48.984949303790927 235.51009033084847 18.696872899308801 34.31728336866945 132.32251496822573 68.161537365056574 5.2280413587577632 3.7724061021581283 5.1667785262688986 46.583844147622585 8.4623284046538156 4.103133510798215 74.05176667869091
leaf_count=167 152 127 77 1804 201 337 2911 463 63 14 56 936 40 57 446
internal_value=8.31124e-11 -0.00220503 0.00981771 -0.0036975 -0.00591388 -0.00198369 -0.0102418 -0.00395203 -0.00732013 -0.0105634 -0.0124892 -0.0143612 0.0085459 -0.00240723 0.00275766
internal_weight=777.584 641.304 136.281 568.89 333.38 182.36 151.019 148.043 79.8813 60.7511 56.9787 51.7506 72.414 12.5655 87.2959
internal_count=7851 7176 675 6912 5108 1996 3112 1659 1196 1069 1055 992 264 97 598
is_linear=0
shrinkage=0.02


Tree=13
num_leaves=16
num_cat=0
split_feature=5 2 6 4 6 4 8 12 12 0 6 8 9 11 8
split_gain=35.8099 26.9965 24.3771 10.3415 13.4246 9.17207 6.13393 9.99631 8.05163 5.70123 9.84266 9.37797 8.51582 7.98274 7.9592
threshold=1.0000000180025095e-35 1.0000000180025095e-35 -2.5829319601860092 1.0000000180025095e-35 0.40787212999960548 -1.3408333268751518 -0.2303395915844344 -0.72305111396115451 -0.086664540947680502 -0.55703907599509084 0.5075655996724594 2.8284432849905961 0.68139740334760468 -0.82287465440785756 1.5175363378870117
decision_type=2 2 2 2 2 2 2 2 2 2 2 2 2 2 2
left_child=2 6 -1 4 5 -4 8 -8 -2 13 12 -12 14 -5 -11
right_child=1 -3 3 9 -6 -7 7 -9 -10 10 11 -13 -14 -15 -16
leaf_value=0.0082115614409487524 -0.003903410893220563 0.019458762976288169 0.0085983035266640005 -0.0070123555405189998 -0.011692160993189898 -0.0040711295237223369 0.0060492386008492187 -0.012156340624620662 0.0098241972003964128 0.00045403541295935864 -0.015494311004999419 0.003609671233752831 0.0081211098527451068 0.0064336790071508202 -0.013153712411415046
leaf_weight=72.058746533468366 19.695527318865061 48.537958056665957 16.010502273216844 13.805168248713015 94.809962655766867 218.98808070528321 13.481897223740818 17.096128016710281 38.188346670940518 69.27712269872427 24.926419052644633 10.005208914866669 31.017520160414279 70.055279388092458 12.601001917384563
leaf_count=264 158 77 112 83 1947 3049 83 227 130 461 377 75 177 454 177
internal_value=3.46969e-11 0.00890635 -0.00203437 -0.00346995 -0.00569158 -0.00289224 0.00172814 -0.00461684 0.00526632 -0.000202797 -0.00251625 -0.0104369 0.00058436 0.00370891 -0.0028439
internal_weight=770.555 137 633.555 561.496 329.809 234.999 88.4619 30.578 57.8839 231.688 147.827 34.9316 112.896 83.8604 81.8781
internal_count=7851 675 7176 6912 5108 3161 598 310 288 1804 1267 452 815 537 638
is_linear=0
shrinkage=0.02


Tree=14
num_leaves=16
num_cat=0
split_feature=5 2 6 4 6 0 6 4 9 12 6 12 3 9 9
split_gain=35.4554 25.6229 23.1355 9.46329 24.7356 12.6351 8.58461 7.07372 7.02267 6.26001 8.07402 6.81797 6.03731 8.60365 5.45946
threshold=1.0000000180025095e-35 1.0000000180025095e-35 -2.5829319601860092 0.2730508697453915 1.0000000180025095e-35 -1.1460772315122918 -0.68875603640178673 -1.3408333268751518 -1.5269688478328856 0.054754697499758177 0.10879172098104389 -0.72305111396115451 -0.67643267676104302 1.378776219509865 -1.7594284532203053
decision_type=2 2 2 2 2 2 2 2 2 2 2 2 2 2 2
left_child=2 8 -1 4 12 -5 -7 -6 -2 10 -10 -12 -4 14 -14
right_child=1 -3 3 5 7 6 -8 -9 9 -11 11 -13 13 -15 -16
leaf_value=0.0079686323674786185 -0.010158527667822118 0.01923278493579628 0.0057623476243063455 0.01173206186514004 0.00097197651059054602 -0.015388718353985817 -0.00011938581760868313 -0.01160628247857903 -0.012247335200113429 0.0085528710184626829 0.0099611435008830733 -0.0050921301709611058 0.0010080614901680984 0.0074902767767724698 -0.0063794742363401163
leaf_weight=71.809630941599607 7.0607018969021729 48.048063481226563 39.65814753761515 23.531545391306281 18.325233637820929 6.7120966333895913 125.40999825159088 160.95793868519831 8.9031017236411554 41.121530571952462 16.780243139714006 13.470695755444465 58.60739372856915 22.70476485346444 101.55553852743469
leaf_count=264 65 77 332 72 201 117 923 3302 180 182 59 112 251 238 1476
internal_value=2.27638e-10 0.00891488 -0.00202744 -0.00343281 -0.00502185 0.000724707 -0.0019233 -0.0103372 0.00184574 0.00390991 -0.00171434 0.0036582 -0.000479043 -0.00206119 -0.00377582
internal_weight=764.657 135.384 629.272 557.463 401.809 155.654 132.122 179.283 87.3363 80.2756 39.154 30.2509 222.526 182.868 160.163
internal_count=7851 675 7176 6912 5800 1112 1040 3503 598 533 351 171 2297 1965 1727
is_linear=0
shrinkage=0.02


Tree=15
num_leaves=16
num_cat=0
split_feature=5 2 6 4 6 4 11 4 9 8 0 0 10 10 12
split_gain=35.8876 23.3834 22.5826 11.4736 13.5231 6.3441 6.11417 5.65985 5.42428 5.39867 5.18815 11.252 8.60928 6.69489 5.35791
threshold=1.0000000180025095e-35 1.0000000180025095e-35 -2.5829319601860092 1.0000000180025095e-35 1.0000000180025095e-35 2.5324887450141529 -2.4597629578869458 0.59582770906950022 -1.5269688478328856 -0.2303395915844344 -0.55703907599509084 0.62103723503931119 1.7428796952555408 -1.9494182483350013 1.6103663204215839
decision_type=2 2 2 2 2 2 2 2 2 2 2 2 2 2 2
left_child=2 8 7 4 10 -5 -6 -1 -2 -9 14 12 13 -12 -4
right_child=1 -3 3 5 6 -7 -8 9 -10 -11 11 -13 -14 -15 -16
leaf_value=0.0101880346178572 -0.0087613614007531603 0.018925134301260818 -0.00030570868681814578 0.001130414143866616 0.0059728426738062 -0.0094870031707064515 -0.010729931212830765 0.0053689379204412725 0.0039017202105631715 -0.011308677046061106 0.0020197855127600463 0.00045997155137365246 0.006199259876930421 -0.017680390309307722 0.012733826031686582
leaf_weight=59.015066346153617 6.3154989909380665 47.66253268532455 63.749506626278162 213.87383740849327 3.1817695237696162 15.027874348685144 145.075818692334 8.2667763195931894 79.114586097188294 4.0749866534024468 6.0500781573355189 74.577024084981531 3.7970115719363084 29.656334321713075 5.577878810465335
leaf_count=167 65 77 735 1600 8 204 3104 39 533 58 59 541 16 640 5
internal_value=3.99739e-11 0.00905725 -0.00201897 -0.00339672 -0.00571813 6.5427e-05 -0.0100167 0.00789155 0.00214559 -0.00273462 -0.00190513 -0.00438657 -0.0117808 -0.0146308 0.00221639
internal_weight=765.017 133.093 631.924 560.567 331.665 228.902 148.258 71.3568 85.4301 12.3418 183.408 114.08 39.5034 35.7064 69.3274
internal_count=7851 675 7176 6912 5108 1804 3112 264 598 97 1996 1256 715 699 740
is_linear=0
shrinkage=0.02


Tree=16
num_leaves=16
num_cat=0
split_feature=5 2 6 4 6 0 12 4 4 8 12 12 11 4 4
split_gain=33.5487 23.3251 20.868 10.1903 21.6419 11.1095 6.90767 6.60556 5.80966 5.5073 9.68048 6.53357 4.97683 4.5696 4.2529
threshold=1.0000000180025095e-35 1.0000000180025095e-35 -2.5829319601860092 0.2730508697453915 1.0000000180025095e-35 -1.1460772315122918 1.186108605079268 -1.3408333268751518 1.2413813877177178 -0.2303395915844344 -0.72305111396115451 -0.086664540947680502 1.0000000180025095e-35 -0.69527964822693444 -0.69527964822693444
decision_type=2 2 2 2 2 2 2 2 2 2 2 2 2 2 2
left_child=2 9 8 4 -4 -5 -7 -6 -1 11 -11 14 -10 -13 -2
right_child=1 -3 3 5 7 6 -8 -9 12 10 -12 13 -14 -15 -16
leaf_value=0.0095950358372925114 0.0051094054324846592 0.018649862436655128 -0.00077026030126184798 0.011377017544930675 0.0010722594674534096 0.00017336851522625329 -0.013203679283537025 -0.011262417667493561 0.005482709965436928 0.0062914412670170439 -0.011779929223364625 -0.00066104527367714971 -0.011418099771757926 0.013007252045999682 -0.0085065489415825334
leaf_weight=62.199677297845483 7.3563234619796303 47.309830814599991 226.2937216500286 23.24443587847054 17.537590973544866 122.38381669577211 7.6298764590173951 157.1958428316284 5.2646673023700696 12.980423522181811 16.44096427038312 12.25082849152386 4.1401705602183938 25.29322393797338 11.495031727361491
leaf_count=186 34 77 2297 72 201 940 100 3302 24 83 227 64 54 66 124
internal_value=-5.279e-11 0.00874833 -0.00196908 -0.00330881 -0.00495225 0.00103146 -0.00149863 -0.0100334 0.0075363 0.00191301 -0.00423356 0.00527433 -0.00400736 0.00934626 -0.0032639
internal_weight=759.016 133.127 625.89 554.285 401.027 153.258 130.014 174.733 71.6045 85.8168 29.4214 56.3954 9.40484 37.5441 18.8514
internal_count=7851 675 7176 6912 5800 1112 1040 3503 264 598 310 288 78 130 158
is_linear=0
shrinkage=0.02


Tree=17
num_leaves=16
num_cat=0
split_feature=5 2 6 4 6 10 0 9 4 12 7 9 12 11 4
split_gain=34.5557 20.9858 20.693 10.1286 13.3851 6.03611 7.64873 5.75807 5.59471 11.6009 5.37195 5.86106 7.15851 5.31007 4.97656
threshold=1.0000000180025095e-35 1.0000000180025095e-35 -2.5829319601860092 1.0000000180025095e-35 1.0000000180025095e-35 -0.718652267138154 1.2100753905565125 -1.5269688478328856 0.2730508697453915 0.54972203206579373 1.288868650763296 -1.7594284532203053 -1.0058895908560317 -3.2782071096264906 2.5324887450141529
decision_type=2 2 2 2 2 2 2 2 2 2 2 2 2 2 2
left_child=2 7 -1 4 10 6 -6 -2 -9 -10 11 -4 13 -13 -5
right_child=1 -3 3 14 5 -7 -8 8 9 -11 -12 12 -14 -15 -16
leaf_value=0.0075167249657163851 -0.0089359400004729115 0.01835988187056348 0.0012345227842734626 0.00088994868137173366 -0.0062648217955909051 -0.011953947997513715 0.010442966116803292 0.0074585550882321286 -0.010452423226448768 0.010331882276326212 0.0045755274079359882 -0.0097528567336485367 -0.010169401110594969 0.0051523733063313214 -0.0086133004411241363
leaf_weight=70.904131586663425 6.3344614575617006 46.97742229141295 61.593252366408706 211.94878322666045 28.583667955128476 111.31108853989281 5.4963249964639536 51.959024084731936 17.458958293776963 8.0393278952687961 34.066191984224133 3.2272595986723926 55.866694947704673 25.393610324710608 14.472411018796263
leaf_count=264 65 77 263 1600 587 2497 28 274 227 32 337 37 1076 283 204
internal_value=-2.1471e-10 0.00896238 -0.00199352 -0.00332722 -0.00553289 -0.00984637 -0.00181244 0.00229795 0.00413336 -0.00283485 -0.00171687 -0.0033834 -0.00652432 0.00138157 -5.61083e-05
internal_weight=753.633 130.769 622.863 551.959 325.538 145.391 34.08 83.7918 77.4573 25.4983 180.147 146.081 84.4876 28.6209 226.421
internal_count=7851 675 7176 6912 5108 3112 615 598 533 259 1996 1659 1396 320 1804
is_linear=0
shrinkage=0.02


Tree=18
num_leaves=16
num_cat=0
split_feature=5 2 6 4 6 0 9 11 4 11 11 10 9 12 9
split_gain=34.0981 19.9146 19.3621 8.97483 13.923 6.89186 8.00038 7.62685 6.09277 5.67155 6.26772 4.9623 4.92062 9.68892 4.86448
threshold=1.0000000180025095e-35 1.0000000180025095e-35 -2.9817058388774247 1.0000000180025095e-35 1.0000000180025095e-35 -0.55703907599509084 0.68139740334760468 -0.82287465440785756 -1.3408333268751518 0.81401364907123097 1.0000000180025095e-35 1.0000000180025095e-35 -0.71336022897691542 1.0446893666318291 1.378776219509865
decision_type=2 2 2 2 2 2 2 2 2 2 2 2 2 2 2
left_child=2 -2 11 4 9 12 7 -7 -6 10 -4 -1 13 -5 -14
right_child=1 -3 3 5 8 6 -8 -9 -10 -11 -12 -13 14 -15 -16
leaf_value=0.011965841432954139 0.0023941827741050699 0.018109915412884644 -0.0028823177772537324 -0.014805102064922082 0.00096473088542805001 0.0033466529814378514 0.0040231505921545369 -0.0083284373400742216 -0.011120625089634326 -0.012043082850416567 0.0045507724592582831 -0.00054555201467767535 0.0076541037871216099 0.0075191354818111913 -0.0053798479393704426
leaf_weight=36.362400015816092 83.371761481277645 46.65960787050426 125.10205661086366 5.8479218636639398 17.305653830291703 23.810703882016242 42.195436908164993 78.427394533995539 124.97212178446352 8.5211704019457084 58.388286712579429 16.294771770015359 67.848508939146996 6.6033256370574236 6.1626212336122981
leaf_count=88 598 77 1172 66 201 125 283 900 2911 221 643 86 408 27 45
internal_value=-1.12889e-10 0.00892407 -0.00199039 -0.00311216 -0.00515808 -5.89406e-05 -0.00267636 -0.00555346 -0.00968383 -0.0014912 -0.00040409 0.00862503 0.00413758 -0.00489004 0.00605763
internal_weight=747.874 130.031 617.842 565.185 334.289 230.896 144.434 102.238 142.278 192.012 183.49 52.6572 86.4624 12.4512 74.0111
internal_count=7851 675 7176 7002 5148 1854 1308 1025 3112 2036 1815 174 546 93 453
is_linear=0
shrinkage=0.02


Tree=19
num_leaves=16
num_cat=0
split_feature=5 2 6 4 6 0 6 4 6 12 3 4 8 12 4
split_gain=33.6102 18.8756 18.5612 10.1178 20.0202 8.8663 6.31028 5.95456 5.21042 11.5051 8.24677 5.15466 5.06827 4.41176 5.1427
threshold=1.0000000180025095e-35 1.0000000180025095e-35 -2.5829319601860092 0.2730508697453915 1.0000000180025095e-35 -1.1460772315122918 -0.68875603640178673 -1.3408333268751518 0.10879172098104389 0.3375931743946356 -0.67643267676104302 0.59582770906950022 -0.2303395915844344 0.3375931743946356 0.2730508697453915
decision_type=2 2 2 2 2 2 2 2 2 2 2 2 2 2 2
left_child=2 8 11 4 -4 -5 -7 -6 9 -2 -11 -1 -13 14 -10
right_child=1 -3 3 5 7 6 -8 -9 13 10 -12 12 -14 -15 -16
leaf_value=0.0092346829013294357 -0.01441857221466461 0.017856063548448209 -0.00087380772186560602 0.010383362439962452 0.00084889072089942407 -0.01323047435051211 0.00032050573969809928 -0.011058559448797941 0.012490323032177637 -0.0070265143488636899 0.010465588108536608 0.0050840351872692017 -0.011203073686766613 -0.0040232180221976147 -0.0017583781131333494
leaf_weight=58.625263243913651 10.27560670673847 46.375918597914279 223.98464960791171 22.963683502748609 17.206571384565905 5.4609217913821331 120.11397033603862 152.88869936903939 27.087186502292752 8.7643271740525979 18.332628128584474 7.9155429713428003 4.0660532880574465 7.2705565476790062 10.872276855632661
leaf_count=167 205 77 2297 72 201 117 923 3302 95 70 80 39 58 54 94
internal_value=-1.49281e-10 0.00889363 -0.00198327 -0.00326311 -0.00490664 0.00113172 -0.0012012 -0.00987377 0.00247694 -0.00269514 0.0044389 0.00703703 -0.00302525 0.00646472 0.00889354
internal_weight=742.204 128.979 613.225 542.618 394.08 148.539 125.575 170.095 82.6026 37.3726 27.097 70.6069 11.9816 45.23 37.9595
internal_count=7851 675 7176 6912 5800 1112 1040 3503 598 355 150 264 97 243 189
is_linear=0
shrinkage=0.02


Tree=20
num_leaves=16
num_cat=0
split_feature=5 6 2 4 6 0 0 10 4 10 4 8 12 12 12
split_gain=33.8237 18.6474 17.441 9.83585 11.7831 5.6275 8.68322 7.85549 5.56414 5.45835 5.35507 4.99907 8.46705 7.32714 4.96711
threshold=1.0000000180025095e-35 -2.5829319601860092 1.0000000180025095e-35 1.0000000180025095e-35 1.0000000180025095e-35 -0.55703907599509084 0.62103723503931119 1.7428796952555408 -1.3408333268751518 -1.9494182483350013 2.5324887450141529 -0.2303395915844344 -0.72305111396115451 -0.086664540947680502 1.6103663204215839
decision_type=2 2 2 2 2 2 2 2 2 2 2 2 2 2 2
left_child=1 -1 11 4 5 14 7 9 -6 -7 -5 13 -13 -2 -3
right_child=2 3 -4 10 8 6 -8 -9 -10 -11 -12 12 -14 -15 -16
leaf_value=0.0070938513131490336 -0.003290494228834599 -0.00010642025944183127 0.017610512838866842 0.0010069306425156566 0.00066313816996581895 0.0015062392233152011 -0.000180093766014809 0.0059100780790721768 -0.010962777003533765 -0.016929621157375872 -0.0089793597578593839 0.0064053955807358669 -0.010605999287721733 0.010410485396271485 0.012344668479942113
leaf_weight=69.921275444328785 18.040019887499511 62.810390342026949 46.093562482856214 205.46196841797791 17.5196074671112 5.8970533013343802 73.345390675589442 3.796878312714397 123.89518914232031 27.427145430119708 13.857482138555495 12.520978934131564 15.751134403049944 34.764629021286964 6.0476303026080123
leaf_count=264 158 735 77 1600 201 59 541 16 2911 640 204 83 227 130 5
internal_value=5.5033e-11 -0.00198834 0.00898687 -0.0032718 -0.00544964 -0.00186346 -0.00450874 -0.0112082 -0.00957379 -0.0140726 1.19063e-05 0.00268889 -0.00336696 0.00595109 0.00241388
internal_weight=737.15 609.98 127.17 540.059 320.739 179.324 110.466 37.1211 141.415 33.3242 219.319 81.0768 28.2721 52.8046 68.858
internal_count=7851 7176 675 6912 5108 1996 1256 715 3112 699 1804 598 310 288 740
is_linear=0
shrinkage=0.02


Tree=21
num_leaves=16
num_cat=0
split_feature=5 2 6 4 6 0 12 4 4 9 12 10 8 10 10
split_gain=30.4428 18.4117 17.7976 9.55378 18.5502 9.23927 5.26806 5.20471 5.13343 5.07977 6.58445 8.10361 6.8263 5.03435 4.78263
threshold=1.0000000180025095e-35 1.0000000180025095e-35 -2.5829319601860092 0.2730508697453915 1.0000000180025095e-35 -1.1460772315122918 0.90327012818439045 -1.3408333268751518 0.59582770906950022 -1.5269688478328856 0.054754697499758177 0.51211371405869344 -0.2303395915844344 1.7428796952555408 -0.718652267138154
decision_type=2 2 2 2 2 2 2 2 2 2 2 2 2 2 2
left_child=2 9 8 4 14 -5 -7 -6 -1 -2 11 -11 -12 -13 -4
right_child=1 -3 3 5 7 6 -8 -9 -10 10 12 13 -14 -15 -16
leaf_value=0.0091852514194550334 -0.0084963407268892205 0.017391819997602424 0.0036238425176592249 0.010703764489181145 0.00047683972911872222 0.00054016683442014715 -0.0098884869722011357 -0.01072349610438326 -0.0030787504448357103 0.0061960773936282432 0.012754569449564433 -0.013290614999709207 -0.0032121327400525474 0.0033274421672663062 -0.0026112314463427313
leaf_weight=57.903680589050055 5.9893275951035312 45.812552475370467 58.947405892424285 22.274967106059194 17.590903584612533 109.89129802281968 13.298848188482223 149.92192838748451 11.846080730669199 17.646039193030447 28.650244761258364 13.788445739075543 10.101635339669881 5.7001214716583481 164.24024316272698
leaf_count=167 65 77 502 72 201 872 168 3302 97 107 86 204 96 40 1795
internal_value=-1.15118e-10 0.00850184 -0.00190059 -0.00316215 -0.0047589 0.00115675 -0.00124355 -0.00958672 0.0069775 0.00217601 0.0039095 -0.00196511 0.00878731 -0.00894997 -0.000879665
internal_weight=733.604 127.688 605.915 536.166 390.7 145.465 123.19 167.513 69.7498 81.8758 75.8865 37.1346 38.7519 19.4886 223.188
internal_count=7851 675 7176 6912 5800 1112 1040 3503 264 598 533 351 182 244 2297
is_linear=0
shrinkage=0.02


Tree=22
num_leaves=16
num_cat=0
split_feature=5 6 2 4 6 4 4 9 12 10 8 4 11 11 11
split_gain=32.5772 18.4589 15.8591 9.74543 11.5129 6.09547 5.04444 4.85539 4.83012 6.00568 5.54142 4.70668 4.6561 5.56026 10.7311
threshold=1.0000000180025095e-35 -2.5829319601860092 1.0000000180025095e-35 1.0000000180025095e-35 0.40787212999960548 -1.3408333268751518 1.2413813877177178 -1.5269688478328856 0.054754697499758177 0.51211371405869344 -0.2303395915844344 1.5641582270418264 0.81401364907123097 -0.82287465440785756 -2.4597629578869458
decision_type=2 2 2 2 2 2 2 2 2 2 2 2 2 2 2
left_child=1 6 7 4 5 -3 -1 -2 9 -9 -10 -8 13 14 -7
right_child=2 3 -4 -5 -6 12 11 8 10 -11 -12 -13 -14 -15 -16
leaf_value=0.0090560581613401119 -0.0078952988432192169 0.0064378964519187292 0.017138425526144717 5.0316326953062217e-05 -0.011160748367219475 -0.00038611418283274217 0.0055091624749524764 0.0057947095127971558 0.012053982741917147 -0.007386805256985725 -0.0025726108853031883 -0.01102081078652207 -0.011955371745118735 2.0696932879289337e-05 -0.01523333300977962
leaf_weight=60.212150021456182 5.680536252912133 16.88956054719165 45.571784317493439 216.64542436576448 89.059156043687835 46.686358056031168 4.9584006909280998 17.878513924311846 28.808598691597581 17.589270809898153 9.9746514484286291 4.0154870133846998 15.704341313801704 126.12618367467076 24.078636703081429
leaf_count=186 65 112 77 1804 1947 200 21 107 86 244 96 57 447 1965 437
internal_value=9.59797e-11 -0.00195772 0.00887633 -0.00324027 -0.00541166 -0.00280767 0.00711984 0.00278389 0.00444104 -0.0009292 0.00853595 -0.00379752 -0.0037984 -0.00260137 -0.00669868
internal_weight=729.879 604.376 125.503 535.19 318.544 229.485 69.186 79.9316 74.251 35.4678 38.7833 8.97389 212.596 196.891 70.765
internal_count=7851 7176 675 6912 5108 3161 264 598 533 351 182 78 3049 2602 637
is_linear=0
shrinkage=0.02


Tree=23
num_leaves=16
num_cat=0
split_feature=5 6 2 4 6 7 9 0 10 6 11 11 11 4 4
split_gain=31.8097 19.0076 15.2671 8.18517 11.4559 6.1165 6.52206 7.71385 6.74775 4.85167 4.48372 4.45145 5.14549 4.34678 4.33746
threshold=1.0000000180025095e-35 -2.5829319601860092 1.0000000180025095e-35 1.0000000180025095e-35 0.40787212999960548 1.288868650763296 -1.6431986505265954 -1.1460772315122918 -0.718652267138154 -2.7823188995317172 0.81401364907123097 -2.4597629578869458 -0.82287465440785756 -0.69527964822693444 2.5324887450141529
decision_type=2 2 2 2 2 2 2 2 2 2 2 2 2 2 2
left_child=1 10 9 4 5 6 7 -3 -9 -2 -1 -8 -13 -10 -5
right_child=2 3 -4 14 -6 -7 11 8 13 -11 -12 12 -14 -15 -16
leaf_value=0.0092909619063481479 -0.0059551170900008013 0.012612104803144682 0.016921946777576861 0.00066751385806820764 -0.011008837113379773 0.0038002480892181472 0.0022095521347813307 0.0053422046606973221 0.0038939021651748181 0.0048974134077609324 -0.0026624051792942618 -0.017979544187168968 -0.0054516169674163608 -0.0093012616758571583 -0.0084309220776390172
leaf_weight=57.754634398967028 11.898009489057584 7.4196507493033996 45.327795334160328 204.93035986565519 88.007452176418155 39.913575138431042 15.052383778616784 21.253098612651229 6.9497016761451951 67.415576314553618 10.733976191841064 10.328918606974183 94.135994665091857 32.191832781769335 13.230631440412251
leaf_count=199 152 18 77 1600 1947 457 91 106 21 446 65 309 1949 210 204
internal_value=2.34429e-11 -0.00193656 0.00880105 -0.00323748 -0.00524793 -0.00264686 -0.00414347 0.000773921 -0.00226546 0.00278492 0.00731703 -0.00677793 -0.00815284 -0.00664279 -0.000229604
internal_weight=726.544 601.902 124.641 533.414 315.253 227.245 187.332 67.8143 60.3946 79.3136 68.4886 119.517 104.465 39.1415 218.161
internal_count=7851 7176 675 6912 5108 3161 2704 355 337 598 264 2349 2258 231 1804
is_linear=0
shrinkage=0.02


Tree=24
num_leaves=16
num_cat=0
split_feature=5 6 2 4 6 10 4 12 8 10 8 4 12 12 6
split_gain=31.1984 17.7314 14.7746 7.63235 11.3714 5.56319 4.64296 4.5419 7.49683 14.7519 14.9292 7.38338 5.44684 7.79179 7.95701
threshold=1.0000000180025095e-35 -2.5829319601860092 1.0000000180025095e-35 1.0000000180025095e-35 1.0000000180025095e-35 1.0000000180025095e-35 0.59582770906950022 -0.086664540947680502 1.5175363378870117 1.0000000180025095e-35 -0.2303395915844344 1.886935066365935 2.1760432742113389 1.186108605079268 0.20848519065389773
decision_type=2 2 2 2 2 2 2 2 2 2 2 2 2 2 2
left_child=1 6 -2 4 -3 -6 -1 8 9 -5 -11 -12 13 14 -9
right_child=2 3 -4 7 5 -7 -8 12 -10 10 11 -13 -14 -15 -16
leaf_value=0.0091288491386200699 0.0027976620039504969 -0.0015889692390854311 0.016751283891394603 -0.01727852401752657 -0.0041223163595216113 -0.012872211608883428 -0.0027333383158585577 0.0031868059185287852 0.010491538501627569 0.0064931013382712385 -0.01412050223542982 0.0056586335859304497 0.0058714215580691984 -0.017102509710472242 -0.0090370090186286545
leaf_weight=56.799198823049664 78.938980781007558 176.30394123354927 45.050418204627931 7.8135838069720185 66.501187328482047 71.520210197893903 11.580692461691795 42.392230337485671 22.52405197545886 76.259030363988131 17.274156951811168 4.2497744243592015 12.249048026278613 8.5172314355149847 26.627087390981615
leaf_count=167 598 1996 77 129 1321 1791 97 324 131 498 163 22 47 137 353
internal_value=1.27737e-10 -0.00191773 0.0087394 -0.00317539 -0.0051206 -0.00921966 0.00702747 -0.000267917 0.00209261 -0.000451522 0.00237141 -0.00965903 -0.00350845 -0.00549172 -0.00207589
internal_weight=724.601 600.611 123.989 532.232 314.325 138.021 68.3799 217.906 128.121 105.597 97.783 21.5239 89.7856 77.5365 69.0193
internal_count=7851 7176 675 6912 5108 3112 264 1804 943 812 683 185 861 814 677
is_linear=0
shrinkage=0.02


Tree=25
num_leaves=16
num_cat=0
split_feature=5 6 2 4 6 6 12 6 4 0 8 4 4 10 6
split_gain=28.0851 16.9745 15.6633 7.93243 18.0541 7.66398 10.444 11.7948 7.67653 6.80187 5.52498 5.11566 5.07038 4.67061 7.61835
threshold=1.0000000180025095e-35 -2.5829319601860092 1.0000000180025095e-35 0.2730508697453915 1.0000000180025095e-35 1.0000000180025095e-35 0.47901241284207435 -0.19028868803751761 0.91860454839360905 1.0000000180025095e-35 0.64359837315128854 2.5324887450141529 -1.3408333268751518 0.51211371405869344 0.40787212999960548
decision_type=2 2 2 2 2 2 2 2 2 2 2 2 2 2 2
left_child=1 -1 -2 4 -3 6 7 -5 13 -10 -11 -12 -6 14 -7
right_child=2 3 -4 5 12 8 -8 -9 9 10 11 -13 -14 -15 -16
leaf_value=0.0069359791605752832 0.0022864762025045925 -0.0007318656780113381 0.016538818898636478 0.0093220370102895956 0.00058546535454233838 0.0081927136908860384 -0.015850744000616514 -0.01011753634040999 0.0054862784318769273 -0.01462442363686244 0.0059456112784842391 -0.0094959945635006201 -0.01055603207633812 0.012788468284996553 -0.0079804401623082312
leaf_weight=68.101297589018941 79.37806872301735 220.96094282716513 44.835951978340745 20.201813109684739 17.128749360796064 16.717262662015859 12.485786667093633 11.432278779335318 19.550463006831706 9.9521857597865182 13.869168772362174 3.4202986704185596 144.72756965865847 28.146508458070457 10.844714489299802
leaf_count=264 598 2297 77 103 201 78 200 88 102 143 103 76 3302 100 119
internal_value=3.44782e-11 -0.00182915 0.00827993 -0.00306429 -0.00454781 0.000852168 -0.00539018 0.00155403 0.00377938 -0.00202826 -0.00744627 0.000530524 -0.0094115 0.00822378 0.00139867
internal_weight=721.753 597.539 124.214 529.438 382.817 146.62 44.1199 31.6341 102.501 46.7921 27.2417 17.2895 161.856 55.7085 27.562
internal_count=7851 7176 675 6912 5800 1112 391 191 721 424 322 179 3503 297 197
is_linear=0
shrinkage=0.02


Tree=26
num_leaves=16
num_cat=0
split_feature=5 6 2 4 6 0 9 7 6 6 12 6 9 9 9
split_gain=26.0513 16.1758 16.0233 9.75784 18.2293 7.25774 5.85252 8.67189 9.439 10.1574 7.16192 7.62235 5.17008 13.6382 5.32062
threshold=1.0000000180025095e-35 -2.9817058388774247 1.0000000180025095e-35 0.2730508697453915 1.0000000180025095e-35 -1.1460772315122918 0.68139740334760468 1.0000000180025095e-35 -0.48936909705607912 0.20848519065389773 -0.72305111396115451 0.20848519065389773 0.44893779796018457 -1.7594284532203053 -1.2945092424454654
decision_type=2 2 2 2 2 2 2 2 2 2 2 2 2 2 2
left_child=1 -1 -2 4 12 -5 7 8 -7 -10 11 -8 13 -3 -15
right_child=2 3 -4 5 -6 6 10 -9 9 -11 -12 -13 -14 14 -16
leaf_value=0.0080772499198112531 0.0019807787676600764 0.0031457244694175642 0.016344677840074921 0.010002667162108306 -0.0093781961282132491 -0.011812740990644456 -0.013789306828796652 -0.012166615100230004 0.0094947098659255956 -0.005311781769813435 0.010464215014229634 0.0054287182959502321 0.0033072647327192146 -0.017820604793350268 -0.0047084420907239424
leaf_weight=50.79545572027564 79.630659234244376 76.077248722314835 44.600398543290794 21.862310134805739 161.86456954211462 9.5484459786675853 5.3036667350679627 20.880994277074933 36.784124391153455 22.416207236004993 23.757114629726857 9.6100742546841484 74.816816372564062 9.4982642782852036 71.941629776032642
leaf_count=174 598 321 77 72 3503 155 47 279 170 254 118 62 816 221 984
internal_value=-7.84563e-11 -0.00176808 0.00797106 -0.0028159 -0.00443787 0.00145325 -0.000621485 -0.00335868 0.000521826 0.00393082 0.00510927 -0.00419726 -0.000751035 -0.00276099 -0.00801935
internal_weight=719.388 595.157 124.231 544.361 394.199 150.163 128.301 89.6298 68.7488 59.2003 38.6709 14.9137 232.334 157.517 81.4399
internal_count=7851 7176 675 7002 5845 1157 1085 858 579 424 227 109 2342 1526 1205
is_linear=0
shrinkage=0.02


Tree=27
num_leaves=16
num_cat=0
split_feature=5 6 2 4 6 6 12 4 9 4 4 8 12 12 12
split_gain=26.4349 15.2324 14.8905 10.5424 17.2809 6.24585 10.1495 8.64587 6.42078 6.19006 5.05203 4.59963 7.75912 5.66693 4.47794
threshold=1.0000000180025095e-35 -2.5829319601860092 1.0000000180025095e-35 0.2730508697453915 1.0000000180025095e-35 1.0000000180025095e-35 0.47901241284207435 0.91860454839360905 -0.48090062358949548 2.5324887450141529 -1.3408333268751518 -0.2303395915844344 -0.72305111396115451 -0.086664540947680502 0.69114127051323238
decision_type=2 2 2 2 2 2 2 2 2 2 2 2 2 2 2
left_child=1 -1 11 4 -3 6 7 8 -5 -7 -6 13 -13 -2 -15
right_child=2 3 -4 5 10 9 -8 -9 -10 -11 -12 12 -14 14 -16
leaf_value=0.0065258873717699561 -0.002944467054625768 -0.00090774645254073109 0.016149964926885828 0.0048188769994877111 0.0005575197552854824 0.0060773943702373909 -0.014787009110471119 0.0091522167075562093 -0.014838142856088201 -0.0061389223816159279 -0.010556739822571135 0.0058597540083243829 -0.010515309326188532 0.013846112761229899 0.00015583038409690996
leaf_weight=67.93841440230608 16.961708470713347 220.61818368849345 44.38702728971839 4.9943746514618415 17.204758634790778 88.215848279884085 11.65502275386825 18.977425314486027 5.9301091302186251 11.576185467652975 144.72222786815837 12.565979336854072 15.385781744960694 19.288122562691569 14.527075398713349
leaf_count=264 158 2297 77 16 201 559 200 95 80 162 3302 83 227 57 73
internal_value=-1.10932e-10 -0.00178389 0.00806517 -0.00296354 -0.00465561 0.00162089 -0.00425011 0.00253347 -0.00784331 0.0042302 -0.00941211 0.00220056 -0.00354946 0.00542905 0.00934262
internal_weight=714.948 591.833 123.116 523.894 382.545 141.349 41.5569 29.9019 10.9245 99.792 161.927 78.7287 27.9518 50.7769 33.8152
internal_count=7851 7176 675 6912 5800 1112 391 191 96 721 3503 598 310 288 130
is_linear=0
shrinkage=0.02


Tree=28
num_leaves=16
num_cat=0
split_feature=5 4 6 2 4 8 0 10 4 12 9 0 9 0 12
split_gain=25.6533 15.0264 21.9559 14.4172 12.5263 6.17691 9.40834 8.5253 5.87751 6.6615 9.85279 9.66269 7.56296 7.4076 5.82073
threshold=1.0000000180025095e-35 0.2730508697453915 1.0000000180025095e-35 1.0000000180025095e-35 2.5324887450141529 -0.2303395915844344 1.2100753905565125 -0.718652267138154 -1.0180564875510432 0.62043165128951305 -1.7594284532203053 -1.1460772315122918 1.378776219509865 -0.55703907599509084 1.186108605079268
decision_type=2 2 2 2 2 2 2 2 2 2 2 2 2 2 2
left_child=1 2 5 -2 14 8 7 -7 -1 11 13 12 -10 -11 -3
right_child=3 4 -4 -5 -6 6 -8 -9 9 10 -12 -13 -14 -15 -16
leaf_value=0.0085415133993452397 0.0021699830755722198 0.0061871051737919323 -0.0093266324527705568 0.015931166951559689 -0.010274677604436346 0.0031476210134803711 0.0040271738557919887 -0.018471215548669703 -0.011690278186001437 0.011824144619446307 -0.010608054524703139 0.0064669622785123119 0.0048001711918468125 -0.002472778293222744 -0.0066340219361814071
leaf_weight=26.940925288945436 78.220070213312283 141.1852289615199 160.29062729561701 44.186225618235767 14.796214770060031 6.624547479674221 15.341588166542349 15.569674691185355 17.419325423892591 10.129342710599301 37.17505612783134 80.192967407172546 11.465300675015895 43.340355345979333 7.505921163596212
leaf_count=98 598 886 3503 77 236 49 48 227 307 20 560 821 92 224 105
internal_value=2.04006e-11 -0.00176376 -0.00372662 0.00796553 0.00325379 -0.000112834 -0.00668802 -0.013045 0.00121261 -0.000136133 -0.00391796 0.00307171 -0.00559353 0.00167187 0.00516263
internal_weight=710.383 587.977 424.49 122.406 163.487 264.199 37.5358 22.1942 226.663 199.722 90.6448 109.078 28.8846 53.4697 148.691
internal_count=7851 7176 5949 675 1227 2446 324 276 2122 2024 804 1220 399 244 991
is_linear=0
shrinkage=0.02


Tree=29
num_leaves=16
num_cat=0
split_feature=5 6 2 4 6 6 12 4 4 9 4 8 4 0 12
split_gain=23.5021 16.0817 14.9881 9.71641 16.5685 6.2929 9.00573 6.301 5.51425 5.15131 4.64581 4.59083 4.53575 5.91614 5.26449
threshold=1.0000000180025095e-35 -2.5829319601860092 1.0000000180025095e-35 0.2730508697453915 1.0000000180025095e-35 1.0000000180025095e-35 0.47901241284207435 0.91860454839360905 0.59582770906950022 -0.48090062358949548 -1.3408333268751518 -0.2303395915844344 0.91860454839360905 1.0000000180025095e-35 -1.076599210079751
decision_type=2 2 2 2 2 2 2 2 2 2 2 2 2 2 2
left_child=1 8 -2 4 -3 6 7 9 -1 -5 -6 -10 14 -14 -7
right_child=2 3 -4 5 10 12 -8 -9 11 -11 -12 -13 13 -15 -16
leaf_value=0.0092571822342112833 0.0018053019633216634 -0.0008783645917161937 0.015748696578515693 0.0042301078524565501 0.00046663142484109819 0.015735223956557763 -0.014335064115528061 0.0076203816994169773 0.004597895461868803 -0.013510170879281072 -0.010352694295853173 -0.011062220898758581 0.0061807592652722773 -0.0061112846636920629 0.0027460209506072744
leaf_weight=55.341807248070836 78.999568354338408 219.27700416790321 43.980295644141734 5.1185337118804473 16.781463358085603 11.721456634812055 11.448225565720348 19.483766751829535 7.6067151520401222 5.1922975881025195 142.50175608985592 4.0647888565436006 18.554428311996162 24.81571143376641 42.886955508962274
leaf_count=167 598 2297 77 16 201 18 200 95 39 80 3302 58 102 322 279
internal_value=1.48565e-11 -0.00169939 0.00760108 -0.00291984 -0.00454935 0.00151894 -0.00437294 0.00209526 0.00688514 -0.00695676 -0.00925258 -0.00344388 0.00417435 -0.000679794 0.00753804
internal_weight=707.775 584.795 122.98 517.782 378.56 139.221 41.2428 29.7946 67.0133 10.3108 159.283 11.6715 97.9786 43.3701 54.6084
internal_count=7851 7176 675 6912 5800 1112 391 191 264 96 3503 97 721 424 297
is_linear=0
shrinkage=0.02


Tree=30
num_leaves=16
num_cat=0
split_feature=5 6 2 4 6 4 9 9 11 12 0 9 3 9 6
split_gain=22.1451 15.9772 15.0947 12.29 16.0123 8.2082 6.28117 14.2273 6.58092 5.63638 5.04566 6.745 10.5276 8.33667 12.6907
threshold=1.0000000180025095e-35 -3.0813993085502784 1.0000000180025095e-35 0.2730508697453915 1.0000000180025095e-35 2.5324887450141529 0.44893779796018457 -1.7594284532203053 -3.2782071096264906 -0.79376073318487383 -1.1460772315122918 0.68139740334760468 1.5020815044515299 -0.36467082089578545 -0.28998215771037145
decision_type=2 2 2 2 2 2 2 2 2 2 2 2 2 2 2
left_child=1 -1 -2 4 6 10 7 -3 -8 -9 -5 12 13 14 -12
right_child=2 3 -4 5 -6 -7 8 9 -10 -11 11 -13 -14 -15 -16
leaf_value=0.009810512104050758 0.0016042529747697257 0.0028603546414408144 0.015575826504099865 0.011450481762827017 -0.0091210659232080146 -0.0089931536562759245 -0.010261209984515818 0.001182250839528458 0.0050290742070452192 -0.010965596057591285 -0.014901514712090636 0.0078543059696585902 0.0067923708586960733 -0.015076968566257135 0.0058863069189918462
leaf_weight=35.353890996426344 79.063937740400434 75.128126241266727 43.764284478500485 18.389590606093407 157.79298987751827 13.561433861497788 3.4957201071083537 16.918380147079006 76.737847829936072 64.744115618988872 6.5977109074592581 37.616520224139094 29.457058398984373 16.049881809856743 30.206143127288669
leaf_count=96 598 327 77 36 3503 231 37 222 796 1002 125 195 189 224 193
internal_value=2.25836e-11 -0.00165578 0.00738024 -0.0025602 -0.00438967 0.00217303 -0.000998138 -0.00326333 0.00329953 -0.00859446 0.00380036 0.00183628 -0.00146691 -0.00641837 -0.000227873
internal_weight=704.878 582.049 122.828 546.696 394.817 151.878 237.024 156.791 80.2336 81.6625 138.317 119.927 82.3108 52.8537 36.8039
internal_count=7851 7176 675 7080 5887 1193 2384 1551 833 1224 962 926 731 542 318
is_linear=0
shrinkage=0.02


Tree=31
num_leaves=16
num_cat=0
split_feature=5 6 2 4 6 4 0 12 9 9 12 8 12 12 11
split_gain=21.0941 15.1041 14.956 12.4625 15.851 7.772 4.94203 5.74412 4.82708 13.0552 5.81817 4.63243 6.44948 5.30242 4.60514
threshold=1.0000000180025095e-35 -3.0813993085502784 1.0000000180025095e-35 0.2730508697453915 1.0000000180025095e-35 2.5324887450141529 -1.1460772315122918 1.186108605079268 0.44893779796018457 -1.7594284532203053 -0.79376073318487383 -0.2303395915844344 -0.72305111396115451 -0.086664540947680502 -3.2782071096264906
decision_type=2 2 2 2 2 2 2 2 2 2 2 2 2 2 2
left_child=1 -1 11 4 8 6 -5 -8 9 -3 -11 13 -13 -2 -10
right_child=2 3 -4 5 -6 -7 7 -9 14 10 -12 12 -14 -15 -16
leaf_value=0.0095356088345881843 -0.0032035956278926763 0.0028552987530393635 0.01538263104340574 0.0114733435611401 -0.0090606000306510791 -0.0086751143103362856 0.0032128275982936682 -0.0098111324347292268 -0.0088496357233293008 0.0016278330086885635 -0.010587287173669404 0.0045887371758462307 -0.010466835029485918 0.0085791137816094033 0.0041883344166326183
leaf_weight=35.281112061813474 16.932212436571717 75.371040266938508 43.580576698295772 18.135044723749161 157.26802696031518 13.274027659324927 113.64487942354754 5.4621712947264305 2.9059678278863421 16.723936930298805 63.484887227183208 12.865939545445146 15.208223579917101 33.847203705459833 77.648239176254719
leaf_count=96 158 327 77 36 3503 231 826 100 37 222 1002 83 227 130 796
internal_value=4.22321e-11 -0.00162114 0.00721246 -0.00250391 -0.00434654 0.00228293 0.00385998 0.0019019 -0.00096637 -0.00296379 -0.00814226 0.00147395 -0.00417408 0.00476955 0.00279266
internal_weight=701.633 579.199 122.434 543.918 393.402 150.516 137.242 119.107 236.134 155.58 80.2088 78.8536 28.0742 50.7794 80.5542
internal_count=7851 7176 675 7080 5887 1193 962 926 2384 1551 1224 598 310 288 833
is_linear=0
shrinkage=0.02


Tree=32
num_leaves=16
num_cat=0
split_feature=5 6 2 4 6 12 12 10 4 9 12 10 8 4 4
split_gain=22.0797 14.9347 13.6301 10.5169 9.98739 5.95019 6.60627 5.57187 5.28109 4.90355 5.10516 6.917 5.61687 4.76213 4.25631
threshold=1.0000000180025095e-35 -2.5829319601860092 1.0000000180025095e-35 1.0000000180025095e-35 -0.28998215771037145 0.054754697499758177 2.1760432742113389 -0.718652267138154 0.59582770906950022 -1.5269688478328856 0.054754697499758177 0.51211371405869344 -0.2303395915844344 -1.3408333268751518 -1.0180564875510432
decision_type=2 2 2 2 2 2 2 2 2 2 2 2 2 2 2
left_child=1 8 9 4 -3 -5 7 -7 -1 -2 11 -11 -12 -6 -13
right_child=2 3 -4 5 13 6 -8 -9 -10 10 12 14 -14 -15 -16
leaf_value=0.0090075845308763801 -0.0086393026429592793 -0.00080929841284862753 0.015218197168121859 0.003285777629973508 0.00098713939891192687 0.0026268631633723366 0.0071496924243300676 -0.0088490480890321341 -0.0034565607155946964 0.0058185001979418807 0.011546260445733451 0.0038104836050619831 -0.0030337260738805944 -0.0091531882554969201 -0.012046557932190243
leaf_weight=54.510124830529094 5.7855057702399781 130.62157078902237 43.378185532055795 125.12835171888582 18.752299628220499 18.381782370153815 10.808086415752767 49.129731569672003 11.500567976385353 17.100115485023707 27.92105510737747 4.0105910664424327 9.7972844773903471 158.36127266823314 14.005520516540853
leaf_count=167 65 1307 77 1032 223 161 47 564 97 107 86 26 96 3578 218
internal_value=1.6844e-10 -0.00166149 0.00739113 -0.00284426 -0.00511893 0.000675042 -0.0033958 -0.00578865 0.00666699 0.00184266 0.00361772 -0.00173141 0.00791702 -0.00808418 -0.00841647
internal_weight=699.192 577.194 121.998 511.183 307.735 203.448 78.3196 67.5115 66.0107 78.6201 72.8346 35.1162 37.7183 177.114 18.0161
internal_count=7851 7176 675 6912 5108 1804 772 725 264 598 533 351 182 3801 244
is_linear=0
shrinkage=0.02


Tree=33
num_leaves=16
num_cat=0
split_feature=5 6 2 4 6 12 12 12 6 9 9 3 7 0 11
split_gain=21.3484 15.3207 13.3894 9.54934 9.79835 5.32582 5.9261 5.61353 7.24289 7.90111 7.21823 7.08582 5.14414 5.06846 6.61189
threshold=1.0000000180025095e-35 -2.5829319601860092 1.0000000180025095e-35 1.0000000180025095e-35 1.0000000180025095e-35 0.054754697499758177 2.1760432742113389 1.186108605079268 0.20848519065389773 -1.2945092424454654 0.68139740334760468 -0.67643267676104302 1.288868650763296 0.62103723503931119 -2.4597629578869458
decision_type=2 2 2 2 2 2 2 2 2 2 2 2 2 2 2
left_child=1 -1 -2 4 12 -5 7 8 9 -7 11 -10 13 14 -3
right_child=2 3 -4 5 -6 6 -8 -9 10 -11 -12 -13 -14 -15 -16
leaf_value=0.00682624506036493 0.0017866443160019436 0.0022319454564781295 0.015046487890093097 0.0029606677937362852 -0.0089176176274341299 0.0098353028636433536 0.006570589234917895 -0.015676665882115071 0.0046799502057399368 -0.0051844964372774202 0.0032052229213491022 -0.019478217187905433 0.0047517824470485323 0.00080585098310959958 -0.0096558460056350558
leaf_weight=65.499706976115704 78.731031810399145 21.626460746861994 43.186443839222193 126.42507713229861 132.49056468112394 19.310281394980844 11.117663981392978 7.6464939964935175 2.0315564814955005 18.080995039548728 8.4848401518538576 11.330481159500778 30.57149398420006 64.827733171638101 55.863750517135486
leaf_count=264 598 127 77 1032 3112 92 47 137 7 202 48 239 337 463 1069
internal_value=1.77843e-11 -0.00163811 0.00726818 -0.00283601 -0.00501925 0.000507359 -0.00335352 -0.00564317 -0.00227093 0.00301088 -0.00941771 -0.0153742 -0.00170756 -0.00331597 -0.00646223
internal_weight=697.225 575.307 121.917 509.807 305.38 204.427 78.0023 66.8846 59.2382 37.3913 21.8469 13.362 172.889 142.318 77.4902
internal_count=7851 7176 675 6912 5108 1804 772 725 588 294 294 246 1996 1659 1196
is_linear=0
shrinkage=0.02


Tree=34
num_leaves=16
num_cat=0
split_feature=5 6 2 4 6 10 0 6 8 4 6 6 11 12 10
split_gain=20.1333 13.9428 13.5266 8.80232 10.444 5.55858 5.09359 5.08477 9.28088 4.82412 4.74073 4.61214 4.79888 4.37125 6.23715
threshold=1.0000000180025095e-35 -2.9817058388774247 1.0000000180025095e-35 1.0000000180025095e-35 -0.28998215771037145 1.0000000180025095e-35 -0.55703907599509084 0.5075655996724594 1.0805673555191502 -1.3408333268751518 -2.7823188995317172 0.10879172098104389 0.81401364907123097 -1.1473088293034703 -0.718652267138154
decision_type=2 2 2 2 2 2 2 2 2 2 2 2 2 2 2
left_child=1 5 10 4 -3 -1 -5 11 -9 -6 -2 13 -13 -8 -15
right_child=2 3 -4 6 9 -7 7 8 -10 -11 -12 12 -14 14 -16
leaf_value=0.011266790814630494 -0.006776283069144292 -0.00051398119587866609 0.01489511102444302 0.0043440449734028289 0.0012834566960767894 -0.0017691466896514619 0.0053659840423315999 -0.014773436186502986 0.0036877274072486723 -0.0088765419178743962 0.0037971246537427308 0.0083489362331459274 -0.0057322201825973085 0.0040553454837480088 -0.0087544540103243404
leaf_weight=34.240180719643831 12.125293981749563 140.73413115995936 42.99086731672287 77.777850183192641 18.43348783114925 15.1345251891762 12.893974944017826 16.849583410541531 12.848579087993128 155.70701934304088 66.552924649324268 30.389468343928456 5.0145640978589645 15.275175881572066 37.695765095762908
leaf_count=88 152 1347 77 546 223 86 57 329 123 3578 446 211 62 95 431
internal_value=-1.95869e-11 -0.00159531 0.00706361 -0.00259368 -0.00465375 0.00764599 0.00058447 -0.00179802 -0.00786941 -0.00778977 0.00158724 0.000529709 0.00553128 -0.00253348 -0.00500311
internal_weight=694.663 572.994 121.669 523.62 314.875 49.3747 208.745 130.967 29.6982 174.141 78.6782 101.269 35.404 65.8649 52.9709
internal_count=7851 7176 675 7002 5148 174 1854 1308 452 3801 598 856 273 583 526
is_linear=0
shrinkage=0.02


Tree=35
num_leaves=16
num_cat=0
split_feature=5 6 2 4 6 4 9 12 10 8 9 9 12 0 11
split_gain=19.8489 13.8225 13.0059 10.4517 15.2693 7.53182 4.99629 4.61797 5.92454 5.75596 4.52069 8.44894 14.0086 4.7468 4.47404
threshold=1.0000000180025095e-35 -3.0813993085502784 1.0000000180025095e-35 0.2730508697453915 1.0000000180025095e-35 2.5324887450141529 -1.5269688478328856 0.054754697499758177 0.51211371405869344 -0.2303395915844344 1.1463166141224448 -1.7594284532203053 -0.51092225628999643 -0.55703907599509084 -2.4597629578869458
decision_type=2 2 2 2 2 2 2 2 2 2 2 2 2 2 2
left_child=1 -1 6 4 10 -5 -2 8 -8 -9 11 13 -13 -3 -6
right_child=2 3 -4 5 14 -7 7 9 -10 -11 -12 12 -14 -15 -16
leaf_value=0.0091403623128836781 -0.0088903839495580693 0.01146762137135829 0.014723285244593029 0.0035550598973001016 0.0052518077839525173 -0.0087533240264119246 0.0052800813156545058 0.011310474249055177 -0.0079217756684980007 -0.0032930037173692119 0.0044594668736880521 0.0026667284403662467 -0.010684545802434092 0.00022355197463436565 -0.0093570733676382762
leaf_weight=34.832616345956922 5.82513853162527 9.6719552688300592 42.809225416742265 135.59635300491937 2.7305535916239014 13.356353956507517 17.338496374199167 27.466628465801477 17.560127357952297 9.9249449204653484 42.573834762442857 47.514707800000906 67.076751748565584 65.242605845443904 152.17911550670397
leaf_count=96 65 20 77 962 9 231 107 86 244 96 414 556 1087 307 3494
internal_value=-1.86145e-10 -0.00158583 0.00703467 -0.00243762 -0.00414105 0.00197013 0.00162838 0.00345335 -0.00164762 0.0075573 -0.000798462 -0.00214401 -0.00537881 0.00285477 -0.00879672
internal_weight=691.699 570.775 120.925 535.942 386.99 148.953 78.1153 72.2902 34.8986 37.3916 232.08 189.506 114.591 74.9146 154.91
internal_count=7851 7176 675 7080 5887 1193 598 533 351 182 2384 1970 1643 327 3503
is_linear=0
shrinkage=0.02


Tree=36
num_leaves=16
num_cat=0
split_feature=5 6 2 4 6 4 12 9 9 3 10 0 7 9 12
split_gain=18.3061 15.1557 13.3843 8.12236 9.45044 5.41565 4.82499 5.00176 6.04967 5.10641 4.79021 5.49273 4.73992 5.03439 5.49839
threshold=1.0000000180025095e-35 -2.5829319601860092 1.0000000180025095e-35 1.0000000180025095e-35 1.0000000180025095e-35 0.59582770906950022 0.054754697499758177 -1.2945092424454654 0.10024838987905453 -0.67643267676104302 -0.718652267138154 1.2100753905565125 1.288868650763296 -1.7594284532203053 -1.0058895908560317
decision_type=2 2 2 2 2 2 2 2 2 2 2 2 2 2 2
left_child=1 5 -2 4 12 -1 -5 -8 9 -9 11 -6 13 -3 -15
right_child=2 3 -4 6 10 -7 7 8 -10 -11 -12 -13 -14 14 -16
leaf_value=0.0093657420639142314 0.0013222607210851235 0.0012871937056757547 0.014572671708373133 0.0027259802954408157 -0.0051758259381268238 -0.0033818903572389275 0.0016632155992771509 0.0040368130612405432 0.0010619996470658242 -0.015771885099284358 -0.010522219868794811 0.0094152341889207642 0.0046901937216520355 0.00094889537952896387 -0.0093664745513640096
leaf_weight=52.886055896058679 77.915245047071949 59.042685735970736 42.608811369165778 125.07963459251914 25.158369888085875 11.380242283456026 38.598399350885302 2.1093788696453002 17.769809072837234 18.367497454863042 100.96623247023672 4.697742977179586 30.534232422243804 28.376769866328686 52.327095500892028
leaf_count=167 598 263 77 1032 587 97 264 11 178 319 2497 28 337 320 1076
internal_value=-2.8378e-10 -0.00152937 0.00676425 -0.00272805 -0.00475594 0.00695698 0.000377587 -0.0033186 -0.0076489 -0.0130763 -0.00860092 -0.00109371 -0.0014887 -0.00306183 -0.00603469
internal_weight=687.818 567.294 120.524 503.028 301.103 64.2663 201.925 76.8451 38.2467 20.4769 130.822 29.8561 170.281 139.747 80.7039
internal_count=7851 7176 675 6912 5108 264 1804 772 508 330 3112 615 1996 1659 1396
is_linear=0
shrinkage=0.02


Tree=37
num_leaves=16
num_cat=0
split_feature=5 6 2 4 6 4 7 0 11 10 4 12 12 12 6
split_gain=16.6578 14.4158 13.8827 7.68437 9.2727 4.47484 4.47009 5.07947 6.23357 5.21116 4.33763 4.31621 4.80234 5.45795 6.2423
threshold=1.0000000180025095e-35 -2.5829319601860092 1.0000000180025095e-35 1.0000000180025095e-35 1.0000000180025095e-35 0.59582770906950022 1.288868650763296 0.62103723503931119 -2.4597629578869458 1.7428796952555408 -1.3408333268751518 0.054754697499758177 2.1760432742113389 1.186108605079268 0.20848519065389773
decision_type=2 2 2 2 2 2 2 2 2 2 2 2 2 2 2
left_child=1 5 -2 4 6 -1 7 8 -3 -10 -6 -5 13 14 -13
right_child=2 3 -4 11 10 -7 -8 -9 9 -11 -12 12 -14 -15 -16
leaf_value=0.0089623546349029328 0.00098306150575383998 0.0022753397204034538 0.014414901366772282 0.002594708714827222 0.00089666577365070876 -0.002832187759308854 0.0045380182786921523 0.0011740947786335781 -0.010943733761286196 0.0050539052102038474 -0.0097510918167337101 0.0030054703087267569 0.0058006337829227071 -0.015165299875231041 -0.0086470375350576646
leaf_weight=53.023067481815815 78.436470518121496 21.510824903845787 42.427641101181507 125.10551316209603 15.657730463426558 11.100329930894075 31.069447939749807 63.428492667153478 50.965192500967532 3.5154708512127391 112.72348906262778 36.446562967263162 11.127180740237234 7.3639327287673941 21.091458646580577
leaf_count=167 598 127 77 1032 201 97 337 463 1055 14 2911 294 47 137 294
internal_value=-4.50189e-11 -0.00146775 0.00643933 -0.00264263 -0.0046242 0.00681398 -0.00141059 -0.00295122 -0.00613064 -0.00928776 -0.00848151 0.000381396 -0.00313886 -0.00524131 -0.00191381
internal_weight=684.993 564.129 120.864 500.005 298.871 64.1234 170.489 139.42 75.9915 54.4807 128.381 201.135 76.0291 64.902 57.538
internal_count=7851 7176 675 6912 5108 264 1996 1659 1196 1069 3112 1804 772 725 588
is_linear=0
shrinkage=0.02


Tree=38
num_leaves=16
num_cat=0
split_feature=5 2 6 4 6 0 0 10 10 8 9 10 9 12 5
split_gain=15.8645 13.8599 13.1079 7.4635 8.89033 4.78893 8.79036 5.49574 5.38065 4.59918 8.5953 4.29229 4.01903 4.34794 6.27209
threshold=1.0000000180025095e-35 1.0000000180025095e-35 -2.5829319601860092 1.0000000180025095e-35 1.0000000180025095e-35 -0.55703907599509084 0.62103723503931119 1.7428796952555408 -1.9494182483350013 -0.2303395915844344 0.91385700873502473 1.0000000180025095e-35 -1.5269688478328856 0.054754697499758177 2.8380126064405018
decision_type=2 2 2 2 2 2 2 2 2 2 2 2 2 2 2
left_child=2 12 9 4 5 -4 7 8 -7 -1 -11 -6 -2 -14 -15
right_child=1 -3 3 -5 11 6 -8 -9 -10 10 -12 -13 13 14 -16
leaf_value=0.0091717304018327644 -0.0085484764699457864 0.014272709514055773 0.0026939678897970067 0.00041889892570554175 -0.0035962520442356285 0.0018996779900972546 0.0004724436126002101 0.0043144473027865952 -0.01614476716404736 -0.011139980247394961 0.0082481893941373854 -0.011611117405053452 -0.0022682164893798075 0.010168297566053773 -0.0049760989916320048
leaf_weight=47.531049370765686 5.6301974831148973 42.242132408544421 63.914141102693975 200.21262912079692 60.868854574859142 5.7314541488885906 70.826237966772169 3.7094202609732738 25.507437997264788 8.1743994783610123 8.6703359261155111 66.424290590453893 35.116305604111403 29.615963267162442 8.2101013362407667
leaf_count=160 65 77 740 1804 1321 59 541 16 640 90 14 1791 351 119 63
internal_value=9.44256e-11 0.00628294 -0.00143797 -0.00256528 -0.00452519 -0.00137414 -0.00385266 -0.010773 -0.0131763 0.00644287 -0.00180542 -0.00831967 0.000861031 0.00253041 0.00652806
internal_weight=682.385 120.815 561.57 497.194 296.982 169.689 105.775 34.9483 31.2389 64.3758 16.8447 127.293 78.5726 72.9424 37.8261
internal_count=7851 675 7176 6912 5108 1996 1256 715 699 264 104 3112 598 533 182
is_linear=0
shrinkage=0.02


Tree=39
num_leaves=16
num_cat=0
split_feature=5 2 6 4 6 7 10 0 9 12 6 8 3 0 11
split_gain=15.9369 13.142 13.0253 7.13379 8.4106 4.30714 4.28489 4.82858 4.22644 5.10896 3.91743 4.09728 6.20529 3.84506 4.65694
threshold=1.0000000180025095e-35 1.0000000180025095e-35 -2.5829319601860092 1.0000000180025095e-35 1.0000000180025095e-35 1.288868650763296 -0.718652267138154 1.2100753905565125 -1.7594284532203053 -1.0058895908560317 -2.7823188995317172 1.0000000180025095e-35 1.5020815044515299 0.62103723503931119 -3.2782071096264906
decision_type=2 2 2 2 2 2 2 2 2 2 2 2 2 2 2
left_child=2 10 -1 4 5 8 7 -6 -4 -10 -2 -12 -13 14 -11
right_child=1 -3 3 -5 6 -7 -8 -9 9 13 11 12 -14 -15 -16
leaf_value=0.00643887114487932 -0.0066378840042121611 0.014109517857247064 0.0010337088475978575 0.00035022877768329337 -0.0048665767615562409 0.0043800005564804479 -0.010063894496555949 0.0089795195383654391 0.0010531006382390638 0.0044803692161402269 0.00552690612930471 -0.011474766889851235 0.005916744946565463 -0.0011585725487448166 -0.014224573450486064
leaf_weight=63.964062763378024 11.699280742555855 42.081524399109185 59.028821486979723 200.3388036293909 24.183416247717108 31.418667087797076 96.904615127714351 4.3628916887100777 27.729334630537778 1.4696698337793375 50.936964950058609 7.9941228297539038 6.6776754111051559 20.113335517700762 29.751826568972319
leaf_count=264 152 77 263 1804 587 337 2497 28 320 3 269 145 32 292 781
internal_value=-2.49784e-11 0.0063359 -0.0014401 -0.0025649 -0.00449141 -0.0014286 -0.00821893 -0.000969856 -0.00295669 -0.00571745 0.000973046 0.00302864 -0.00436939 -0.0089501 -0.0124708
internal_weight=678.655 119.39 559.265 495.301 294.963 169.512 125.451 28.5463 138.093 79.0642 77.308 65.6088 14.6718 51.3348 31.2215
internal_count=7851 675 7176 6912 5108 1996 3112 615 1659 1396 598 446 177 1076 784
is_linear=0
shrinkage=0.02


Tree=40
num_leaves=16
num_cat=0
split_feature=5 2 6 4 6 4 12 7 4 12 12 8 4 12 0
split_gain=15.96 12.6272 12.2565 6.31003 9.03485 4.31961 4.12124 5.84131 5.33796 4.03494 10.7406 4.36749 4.5807 4.26132 4.06541
threshold=1.0000000180025095e-35 1.0000000180025095e-35 -2.9817058388774247 1.0000000180025095e-35 1.0000000180025095e-35 -1.3408333268751518 0.054754697499758177 1.0000000180025095e-35 1.5641582270418264 -0.72305111396115451 -0.86447035240859316 1.5175363378870117 0.59582770906950022 -1.076599210079751 0.62103723503931119
decision_type=2 2 2 2 2 2 2 2 2 2 2 2 2 2 2
left_child=2 -2 -1 4 -4 -6 9 8 -8 10 11 12 -5 -14 -11
right_child=1 -3 3 6 5 -7 7 -9 -10 14 -12 -13 13 -15 -16
leaf_value=0.0072897576181141345 0.0010631795313523163 0.013990810845056229 -0.0011747246090811191 0.0037447107592704261 0.0011655624742250136 -0.0094195459669763875 0.002198782111264595 -0.012707424215618084 -0.010099622189693364 0.0090251896859962488 -0.015350883522668439 0.011156188773095458 0.0011990155918750753 -0.013685371678691383 -0.0010128549059886637
leaf_weight=48.350812061689794 76.76325806742534 41.883175311610103 179.08902848884463 34.729517362546176 15.361614069901405 108.7032911182614 60.918640604242682 9.5971254827454668 7.6325427503325036 38.84075832599774 6.497932012891396 7.8074284372851244 12.487373368814589 5.3846039059571913 21.338731611147523
leaf_count=174 598 77 2036 241 201 2911 504 153 144 279 132 24 68 78 231
internal_value=-9.06883e-11 0.00635954 -0.00144358 -0.00239877 -0.00418548 -0.00811973 0.000312227 -0.00307636 -0.000281948 0.00246836 -0.000918995 0.00259315 -0.000256898 -0.00658659 0.0058287
internal_weight=675.386 118.646 556.739 508.389 303.154 124.065 205.235 78.1483 68.5512 127.086 66.9069 60.4089 52.6015 17.872 60.1795
internal_count=7851 675 7176 7002 5148 3112 1854 801 648 1053 543 411 387 146 510
is_linear=0
shrinkage=0.02


Tree=41
num_leaves=16
num_cat=0
split_feature=5 2 6 4 6 6 12 6 4 4 12 12 4 6 3
split_gain=15.833 12.2191 11.3708 6.54121 13.4426 5.0886 8.38441 6.26882 4.06914 4.011 4.86593 9.26521 4.002 3.96508 3.95971
threshold=1.0000000180025095e-35 1.0000000180025095e-35 -2.5829319601860092 0.2730508697453915 1.0000000180025095e-35 1.0000000180025095e-35 0.47901241284207435 -0.19028868803751761 -1.3408333268751518 0.91860454839360905 -1.076599210079751 -0.72305111396115451 0.59582770906950022 -2.7823188995317172 -0.67643267676104302
decision_type=2 2 2 2 2 2 2 2 2 2 2 2 2 2 2
left_child=2 13 12 4 14 6 7 -5 -6 10 -7 -12 -1 -2 -4
right_child=1 -3 3 5 8 9 -8 -9 -10 -11 11 -13 -14 -15 -16
leaf_value=0.0079469329598309164 -0.0065660819666313666 0.013863623118857983 0.0046362998708214974 0.0076462441792058394 0.00090321999084582274 0.014698597711884578 -0.013861891092514234 -0.0071536825550287311 -0.00938171234518753 -0.00095802121525984953 -0.010506268415779143 0.0067729593846403615 -0.0030657964811334044 0.0031852350355865834 -0.0018599673019673837
leaf_weight=53.306221975013614 11.609932737424968 41.706111690960824 37.231984319165349 19.102674662135545 15.396930700866504 11.373045255430041 11.00896640634164 9.3470811052247864 131.43074606556911 42.097323883324862 7.5081565007567397 34.37281688908115 10.944803858175872 65.485752221895382 174.43865800299682
leaf_count=167 152 77 332 103 201 18 200 88 3302 424 85 194 97 446 1965
internal_value=-7.77774e-11 0.00633051 -0.00143664 -0.00249203 -0.00387517 0.00119973 -0.00418734 0.00218788 -0.00831437 0.00361489 0.00680974 0.00224726 0.00591073 0.00113148 -0.000559696
internal_weight=676.361 118.802 557.559 493.308 358.498 134.81 39.4587 28.4498 146.828 95.3513 53.254 41.881 64.251 77.0957 211.671
internal_count=7851 675 7176 6912 5800 1112 391 191 3503 721 297 279 264 598 2297
is_linear=0
shrinkage=0.02


Tree=42
num_leaves=16
num_cat=0
split_feature=5 2 6 4 6 4 9 9 0 7 10 12 6 9 12
split_gain=15.3942 12.062 11.4195 9.10063 12.3781 7.02245 4.8929 11.9022 4.52497 4.37538 4.15734 4.27361 5.84139 3.83706 5.32381
threshold=1.0000000180025095e-35 1.0000000180025095e-35 -3.0813993085502784 0.2730508697453915 1.0000000180025095e-35 2.5324887450141529 0.44893779796018457 -1.7594284532203053 -0.55703907599509084 1.288868650763296 -0.718652267138154 2.0346240357639003 -0.98783644542034821 -1.5269688478328856 0.054754697499758177
decision_type=2 2 2 2 2 2 2 2 2 2 2 2 2 2 2
left_child=2 13 -1 4 6 -5 7 8 -4 -9 11 -10 -13 -2 -15
right_child=1 -3 3 5 -6 -7 -8 9 10 -11 -12 12 -14 14 -16
leaf_value=0.0083752574582235551 -0.0082086759874338191 0.013750866269168953 0.011176802580403671 0.0034544510843932097 -0.0081849122379521848 -0.0085988049902045692 0.0029919836291326845 -0.0099778066606199707 0.011218358237297148 0.0012767380094826247 -0.0039860315482830909 0.0066899455402108614 -0.0090177363222580104 -0.0025564605576218415 0.0072443035390306653
leaf_weight=34.342480168677866 5.4151789899915448 41.512109845876694 9.4069926012307388 133.50034613837488 145.89815054100472 12.666801746003328 78.136421574279666 62.21131996344775 10.614431998692455 14.494053720496593 35.439434351399541 9.333201467990877 8.7985118310898525 35.057307154638693 36.36566596198827
leaf_count=96 65 77 20 962 3503 231 833 1043 25 181 211 22 49 351 182
internal_value=6.0219e-11 0.0062524 -0.00142075 -0.00221278 -0.003837 0.00192619 -0.000833236 -0.00288447 0.00271392 -0.0079492 0.000134192 0.00493154 -0.00142835 0.00108433 0.00271053
internal_weight=673.192 118.35 554.842 520.5 374.333 146.167 228.434 150.298 73.5926 76.7054 64.1856 28.7461 18.1317 76.8382 71.423
internal_count=7851 675 7176 7080 5887 1193 2384 1551 327 1224 307 96 71 598 533
is_linear=0
shrinkage=0.02


Tree=43
num_leaves=16
num_cat=0
split_feature=5 2 6 4 6 12 7 4 10 7 0 9 11 10 10
split_gain=14.5304 12.1711 11.7741 6.83745 8.42951 4.528 4.62334 3.91965 3.91463 3.71837 4.50079 5.26626 7.10363 5.85946 4.4307
threshold=1.0000000180025095e-35 1.0000000180025095e-35 -2.5829319601860092 1.0000000180025095e-35 1.0000000180025095e-35 0.054754697499758177 1.0000000180025095e-35 0.59582770906950022 1.0000000180025095e-35 1.288868650763296 0.62103723503931119 1.378776219509865 -3.2782071096264906 1.7428796952555408 -1.9494182483350013
decision_type=2 2 2 2 2 2 2 2 2 2 2 2 2 2 2
left_child=2 -2 7 4 9 -5 -7 -1 -6 10 11 12 -4 14 -14
right_child=1 -3 3 5 8 6 -8 -9 -10 -11 -12 -13 13 -15 -16
leaf_value=0.0081513094878926575 0.00092059626251034244 0.013624639937693511 0.0054734753891700939 0.0026618961549452762 -0.0034965203571135075 -0.00063232643725852887 -0.011940107738902002 -0.0028664020368338421 -0.011302444840468972 0.0040851819936329912 0.0011411512478522433 0.0030889766511970791 0.001846900772083468 0.0048678568843709387 -0.014414354358996673
leaf_weight=52.569200148805976 77.029132622294128 41.324040049687028 6.6915146745741358 124.22784215596039 58.734349803067744 65.683508197544143 9.0201631761156005 10.856052248738704 64.634850048692897 31.542371480027214 62.705151266884059 15.503014337504281 5.282834203913807 3.5622884985059491 41.694505249150097
leaf_count=167 598 77 32 1032 1321 620 152 97 1791 337 463 149 57 14 944
internal_value=-1.69394e-10 0.00607223 -0.00138507 -0.00246279 -0.00436813 0.000394106 -0.00324613 0.00613194 -0.00812697 -0.00128874 -0.0027351 -0.00581089 -0.00832259 -0.0107516 -0.0125825
internal_weight=671.061 118.353 552.708 489.282 290.351 198.932 74.7037 63.4253 123.369 166.982 135.439 72.7342 57.2311 50.5396 46.9773
internal_count=7851 675 7176 6912 5108 1804 772 264 3112 1996 1659 1196 1047 1015 1001
is_linear=0
shrinkage=0.02


Tree=44
num_leaves=16
num_cat=0
split_feature=5 2 6 4 6 4 9 9 7 12 8 3 6 6 0
split_gain=14.1447 11.9552 10.8187 7.57356 13.2866 6.36901 4.20337 11.0107 4.73746 3.81267 3.80878 4.99804 4.33286 4.32565 3.7971
threshold=1.0000000180025095e-35 1.0000000180025095e-35 -3.0813993085502784 0.2730508697453915 1.0000000180025095e-35 2.5324887450141529 0.44893779796018457 -1.7594284532203053 1.288868650763296 1.186108605079268 1.0000000180025095e-35 1.5020815044515299 -1.3866103241117635 -2.7823188995317172 -1.1460772315122918
decision_type=2 2 2 2 2 2 2 2 2 2 2 2 2 2 2
left_child=2 10 -1 4 6 9 7 -4 -9 -5 13 12 -12 -2 -8
right_child=1 -3 3 5 -6 -7 14 8 -10 -11 11 -13 -14 -15 -16
leaf_value=0.0081752138379400791 -0.0059682107959982012 0.013496729997963903 0.0029363604834518925 0.0039955245643230244 -0.0081732513652953559 -0.0084224784115949775 -0.003036426176544042 -0.0096237413634673429 0.0017078331564422938 -0.006327370369285339 0.0025154071781227734 0.0045124437393689138 -0.015541835615804534 0.0055322564022875862 0.0055424834431753453
leaf_weight=34.230460886843503 7.8760392093099645 41.147594033740461 72.236428432166576 127.88850637199357 144.10187752055936 12.541762514738364 22.546623003436252 59.883881275076419 15.279644688125698 6.9993031276389948 4.192243831232191 7.0284732226282349 7.0451273368671545 50.963855787878856 55.420175844803452
leaf_count=96 104 77 327 860 3503 231 280 1043 181 102 32 52 141 269 553
internal_value=-5.39767e-11 0.00599229 -0.00136962 -0.00214486 -0.00364627 0.00161036 -0.000527391 -0.00246439 -0.00739015 0.00306013 0.000897833 -0.00539072 -0.0107929 0.00334951 0.00299846
internal_weight=669.382 118.253 551.129 516.898 369.469 147.43 225.367 147.4 75.1635 134.888 77.1057 18.2658 11.2374 58.8399 77.9668
internal_count=7851 675 7176 7080 5887 1193 2384 1551 1224 962 598 225 173 373 833
is_linear=0
shrinkage=0.02


Tree=45
num_leaves=16
num_cat=0
split_feature=5 2 6 4 6 0 0 4 10 9 9 8 9 12 12
split_gain=13.88 11.6041 11.0971 5.84567 8.99085 4.4091 9.61004 6.33881 4.62477 4.3183 4.61986 4.05451 7.48466 3.97432 4.79302
threshold=1.0000000180025095e-35 1.0000000180025095e-35 -2.5829319601860092 1.0000000180025095e-35 -0.28998215771037145 -0.55703907599509084 0.62103723503931119 -0.37250280890282589 -1.9494182483350013 -1.0620496370580452 1.378776219509865 -0.2303395915844344 0.91385700873502473 0.054754697499758177 2.1760432742113389
decision_type=2 2 2 2 2 2 2 2 2 2 2 2 2 2 2
left_child=2 -2 11 4 5 9 8 -8 -7 -4 -11 -1 -13 -5 -15
right_child=1 -3 3 13 -6 6 7 -9 -10 10 -12 12 -14 14 -16
leaf_value=0.008522968995711238 0.00089868323110843431 0.013353340118551264 0.011171441519595487 0.0023582714222523354 -0.0071481259581959678 0.0024681375733871217 0.010839253658786064 -0.0020222472351521721 -0.014712678762087279 -0.0054910741661319262 0.0064990872438668206 -0.010641335790831555 0.0075505381563830999 -0.0052924437215998597 0.0058707044282829291
leaf_weight=46.721370689570904 76.266418460058048 40.986277054063976 12.341326333582399 124.00671668013092 162.38443555787671 4.778127730824056 11.751609482802449 44.177038921974599 18.012511916691437 18.991038447944447 13.10133822262287 7.801706055179241 8.6970424279570562 63.600190443452448 10.629889477044342
leaf_count=160 598 77 83 1032 3801 45 36 303 451 319 70 90 14 725 47
internal_value=-9.52046e-11 0.00595951 -0.00136153 -0.00241717 -0.00419963 -6.70079e-05 -0.00281171 0.00191437 -0.0114565 0.00441878 -0.000215106 0.00594336 -0.00182126 0.00022864 -0.00318666
internal_weight=664.247 117.253 546.994 483.774 285.537 123.153 78.7193 55.9286 22.7906 44.4337 32.0924 63.2201 16.4987 198.237 74.2301
internal_count=7851 675 7176 6912 5108 1307 835 339 496 472 389 264 104 1804 772
is_linear=0
shrinkage=0.02


Tree=46
num_leaves=16
num_cat=0
split_feature=5 2 6 4 6 6 4 10 0 12 12 9 12 12 8
split_gain=13.6052 11.367 10.2548 7.20766 10.6401 4.94796 8.4509 4.6152 14.724 5.05321 4.3677 3.86838 4.24444 6.03487 4.20279
threshold=1.0000000180025095e-35 1.0000000180025095e-35 -0.98783644542034821 0.2730508697453915 1.0000000180025095e-35 1.0000000180025095e-35 0.91860454839360905 1.0000000180025095e-35 0.62103723503931119 0.97397974740810966 0.3375931743946356 -1.5269688478328856 0.054754697499758177 -0.72305111396115451 -0.2303395915844344
decision_type=2 2 2 2 2 2 2 2 2 2 2 2 2 2 2
left_child=2 11 7 4 -4 6 -5 -1 9 -9 -8 -2 13 -13 -14
right_child=1 -3 3 5 -6 -7 10 8 -10 -11 -12 12 14 -15 -16
leaf_value=0.0074435330194044941 -0.0083761786673478295 0.01323949897295304 -0.00078101216300388587 -0.012697510844626524 -0.0081016637334332935 0.0035498639994103582 0.0084287476889814018 0.009317208617612505 -0.013486508308850264 -0.0056214358084762583 -0.0049702005050609377 0.0043418836656637433 0.0097435098175641752 -0.0091426753104681333 -0.0029490832244617837
leaf_weight=56.846433217870072 5.4788551181554785 40.812983534298837 169.90020772325806 14.131322076544164 143.14566941931844 94.42471743770875 13.377348463982345 28.005011685192585 12.960401026066391 4.5829991120845071 8.1488144965842348 19.601514980196953 27.134300461038947 14.802956986473871 9.1892563048750144
leaf_count=275 65 77 1978 152 3503 721 68 159 121 80 119 154 86 197 96
internal_value=7.29293e-11 0.00590517 -0.00135021 -0.00267058 -0.00427567 0.0012216 -0.00437101 0.00409308 -0.00067567 0.00638967 0.00338888 0.000897086 0.00256402 -0.00221237 0.00658904
internal_weight=662.543 117.02 545.523 443.128 313.046 130.082 35.6575 102.395 45.5484 32.588 21.5262 76.2069 70.728 34.4045 36.3236
internal_count=7851 675 7176 6541 5481 1060 339 635 360 239 187 598 533 351 182
is_linear=0
shrinkage=0.02


Tree=47
num_leaves=16
num_cat=0
split_feature=5 6 2 4 6 0 0 4 9 4 10 9 9 10 9
split_gain=12.9626 11.3818 11.3749 6.18547 8.0008 4.46505 8.10245 5.65166 4.59125 4.03158 4.02712 3.433 6.11732 3.50594 3.48591
threshold=1.0000000180025095e-35 -2.5829319601860092 1.0000000180025095e-35 1.0000000180025095e-35 -0.28998215771037145 -0.55703907599509084 0.62103723503931119 -0.37250280890282589 -1.0620496370580452 -1.3408333268751518 -1.9494182483350013 0.68139740334760468 1.0300868114287349 1.0000000180025095e-35 -1.8756582559140156
decision_type=2 2 2 2 2 2 2 2 2 2 2 2 2 2 2
left_child=1 -1 -2 4 5 8 10 -8 -3 -6 -7 14 13 -13 -11
right_child=2 3 -4 -5 9 6 7 -9 -10 11 -12 12 -14 -15 -16
leaf_value=0.0061435815501865321 0.0007712395239818275 0.011102206935694359 0.013123500527500774 0.00034263198166105353 0.0015022003250514304 0.0020738259548347794 0.0096942188734201341 -0.0023713516578689297 -0.00047012962724314302 0.00091410721320318866 -0.014215170662194403 0.0073885973777724793 -0.009205963550033832 -0.0030828955041313872 -0.011693653259980957
leaf_weight=62.036712857894599 75.839983147569001 12.572914574295281 40.633390967734158 197.06386756384745 16.771292110905051 4.8528147246688631 11.977270850911735 44.084705141372979 32.99274067953229 8.2134029667358828 17.333626479143277 14.511429532896726 26.343946172622964 18.338508314802311 77.027586956857704
leaf_count=264 598 83 77 1804 223 45 36 303 389 34 451 240 766 410 2128
internal_value=8.80431e-11 -0.00131865 0.00577743 -0.00238425 -0.00421734 -0.000318011 -0.00309299 0.00128362 0.00414639 -0.00701871 -0.0111149 -0.00804133 -0.00348066 0.00218764 -0.0105104
internal_weight=660.594 544.121 116.473 482.084 285.02 123.814 78.2484 56.062 45.5657 161.206 22.1864 144.435 59.1939 32.8499 85.241
internal_count=7851 7176 675 6912 5108 1307 835 339 472 3801 496 3578 1416 650 2162
is_linear=0
shrinkage=0.02


Tree=48
num_leaves=16
num_cat=0
split_feature=5 2 6 6 0 4 10 12 12 8 4 4 10 9 12
split_gain=12.9756 10.9515 10.3469 5.61139 6.2582 12.4535 6.80041 6.29451 6.19555 5.42976 4.51569 3.95547 4.0699 3.62235 3.76221
threshold=1.0000000180025095e-35 1.0000000180025095e-35 -2.5829319601860092 0.5075655996724594 1.0000000180025095e-35 0.2730508697453915 -0.718652267138154 0.12546431672347755 -1.076599210079751 2.8284432849905961 -1.3408333268751518 1.0000000180025095e-35 -1.3340352577365777 -1.5269688478328856 0.054754697499758177
decision_type=2 2 2 2 2 2 2 2 2 2 2 2 2 2 2
left_child=2 13 -1 10 5 -5 7 -6 -8 -10 -4 -12 -13 -2 -15
right_child=1 -3 3 4 6 -7 8 -9 9 -11 11 12 -14 14 -16
leaf_value=0.0057750416176992536 -0.0081391236023238053 0.013011622848173756 0.0070292191076025039 -0.0074640005413444026 -0.010234390154054852 0.00863795537846959 0.0038337767707496747 0.0067287315986348196 -0.018148325366570701 0.001217918116738087 -0.0033397274268071116 -0.0088001982142356782 0.0019007393924829405 -0.0020605573077620985 0.0062546705450786449
leaf_weight=62.344520453363657 5.3952806489542118 40.455275899730623 16.193988601211458 37.124021187075414 4.0122761970851597 22.537695058621466 3.4997653616592279 13.344810038805006 32.851243132026866 5.3035757481120518 201.82691749779042 5.824858905747532 136.86175271659158 34.000717253424227 36.268585668876767
leaf_count=264 65 77 128 936 144 95 33 140 837 59 3350 67 1123 351 182
internal_value=4.82643e-11 0.00578759 -0.00132299 -0.00234525 -0.00593973 -0.00101454 -0.0100506 0.000499829 -0.0136926 -0.0157625 -0.00103434 -0.00160095 0.000916151 0.000857118 0.00247578
internal_weight=657.845 116.12 541.725 479.381 118.673 59.6617 59.0117 17.3571 41.6546 38.1548 360.708 344.514 142.687 75.6646 70.2693
internal_count=7851 675 7176 6912 2244 1031 1213 284 929 896 4668 4540 1190 598 533
is_linear=0
shrinkage=0.02


Tree=49
num_leaves=16
num_cat=0
split_feature=5 2 6 4 6 4 6 4 8 0 0 8 10 11 0
split_gain=12.6365 10.7152 9.85997 6.55926 9.85206 4.07205 3.99834 6.74236 5.08695 3.92044 7.51272 6.52181 6.46246 4.42163 4.31407
threshold=1.0000000180025095e-35 1.0000000180025095e-35 -0.98783644542034821 0.2730508697453915 1.0000000180025095e-35 2.5324887450141529 1.0000000180025095e-35 0.91860454839360905 1.0805673555191502 0.62103723503931119 -0.55703907599509084 -0.2303395915844344 0.51211371405869344 -0.82287465440785756 -1.1460772315122918
decision_type=2 2 2 2 2 2 2 2 2 2 2 2 2 2 2
left_child=2 -2 -1 4 9 6 7 -5 -9 10 11 14 -12 -11 -4
right_child=1 -3 3 5 -6 -7 -8 8 -10 13 12 -13 -14 -15 -16
leaf_value=0.0040517322387076567 0.00083669709176442707 0.01287608926104657 -0.0013520339207253643 -0.010743543765919569 -0.0079085284730484404 -0.0071153537882545246 0.004569290535720672 0.0084598275389092051 -0.0063966101810604527 -0.0032476508826505524 -0.013117290186897038 -0.011160540552650334 0.0020349858864611805 0.0062931312316364431 0.0083294437158380457
leaf_weight=101.17045110533945 75.471063679549843 40.284948773682117 31.57490992103703 12.637661493383346 139.42704322934151 11.213584732264279 84.109981634654105 15.70153141114861 5.5922953281551591 23.587354270741343 27.541940219001845 4.3497261637821785 12.658656777348368 40.70323001453653 27.393649925477806
leaf_count=635 598 77 431 152 3503 201 559 80 68 126 592 80 131 400 218
internal_value=-9.25893e-11 0.00571732 -0.00131283 -0.00261913 -0.00417032 0.00110271 0.00237813 -0.00285709 0.00376089 -0.000794274 -0.00309404 0.00129718 -0.0088911 0.00282677 0.00370107
internal_weight=653.418 115.756 537.662 436.492 307.237 129.255 118.041 33.9315 21.2938 167.809 103.519 63.3183 40.2006 64.2906 58.9686
internal_count=7851 675 7176 6541 5481 1060 859 300 148 1978 1452 729 723 526 649
is_linear=0
shrinkage=0.02


Tree=50
num_leaves=16
num_cat=0
split_feature=5 2 6 6 0 10 4 12 6 12 12 3 9 8 10
split_gain=12.304 10.5419 9.17621 5.30985 5.92707 10.3515 8.48812 4.05606 3.98369 8.22854 5.02331 5.01704 4.00538 3.83199 3.7873
threshold=1.0000000180025095e-35 1.0000000180025095e-35 -2.9817058388774247 0.5075655996724594 -0.55703907599509084 -0.718652267138154 0.2730508697453915 -1.076599210079751 0.10879172098104389 0.3375931743946356 0.3375931743946356 -0.67643267676104302 -0.94581983436433548 2.8284432849905961 1.0000000180025095e-35
decision_type=2 2 2 2 2 2 2 2 2 2 2 2 2 2 2
left_child=2 8 14 -4 6 -6 -5 -7 9 -2 -10 12 -11 -9 -1
right_child=1 -3 3 4 5 7 -8 13 10 11 -12 -13 -14 -15 -16
leaf_value=0.0092152994179371256 -0.013507921384532495 0.012762024154381735 -0.00092043810185420908 -0.0060556719579075123 0.0020797772292822838 0.0017948708340654771 0.0083000187679433454 -0.01687334883360022 0.0075137660872358313 -0.011891763649221952 -0.0058062037779497144 0.0077897942277274489 0.0044269630662156848 0.00024574307754569825 -0.0017747164218311329
leaf_weight=33.910764375701547 9.6400768142193538 40.111130270175636 372.92987412854563 29.799232045654207 20.836710418341681 4.1842881571501485 18.113945927005261 37.723290715948679 34.09427066706121 4.1576581113040447 7.0537821296602479 17.104393821209669 3.5300284409895566 5.5546491038985542 13.598214403726159
leaf_count=88 205 77 4758 734 348 48 61 988 189 49 54 80 21 65 86
internal_value=2.39319e-11 0.00564235 -0.00129734 -0.00214762 -0.00570073 -0.00909127 -0.00013235 -0.013504 0.000814146 -0.00366 0.00454165 0.0029511 -0.0061321 -0.0150424 0.00630807
internal_weight=652.342 115.691 536.651 489.142 116.212 68.2989 47.9132 47.4622 75.5802 34.4322 41.1481 24.7921 7.68769 43.2779 47.509
internal_count=7851 675 7176 7002 2244 1449 795 1101 598 355 243 150 70 1053 174
is_linear=0
shrinkage=0.02


Tree=51
num_leaves=16
num_cat=0
split_feature=4 0 9 5 12 0 4 9 9 12 6 6 3 8 9
split_gain=11.7517 11.8414 12.9655 11.1144 8.19221 10.9263 12.1005 8.04854 7.74573 7.72319 7.68824 7.42215 15.8498 10.0975 6.33738
threshold=-1.3408333268751518 -0.55703907599509084 0.68139740334760468 1.0000000180025095e-35 1.6103663204215839 -1.1460772315122918 0.59582770906950022 1.4950060222035748 0.79762720604131465 0.47901241284207435 0.90633947836387463 -0.48936909705607912 1.5020815044515299 1.0000000180025095e-35 1.378776219509865
decision_type=2 2 2 2 2 2 2 2 2 2 2 2 2 2 2
left_child=8 3 11 4 5 6 14 10 -1 -7 -4 13 -13 -3 -2
right_child=1 2 7 -5 -6 9 -8 -9 -10 -11 -12 12 -14 -15 -16
leaf_value=0.010810692030034293 -0.011363193347371408 0.001403355660176783 0.0063138374160303969 0.011894007950198578 0.012693852755679169 0.0068463325272649835 0.0066349068039154102 -0.01138194319141936 -0.0068147002485316787 -0.0074455495381421724 -0.0082285024677042438 -0.010532367723719047 0.0049536097291233774 -0.012725493121822251 0.0018061302941197721
leaf_weight=47.048103017034009 57.778730311896652 103.95740882586688 92.498416302027181 33.636825392954051 10.138045124709604 69.125263967434876 19.21014251280576 4.8100781317334613 5.003409116761758 10.021445001475511 8.1500386677216721 132.92810292716604 26.159894165117294 14.69986349577084 15.467972648330031
leaf_count=277 1415 886 948 114 16 686 71 166 73 158 181 2279 193 218 170
internal_value=4.89885e-11 -0.000845384 -0.00292826 0.00282598 0.000614884 -0.000758413 -0.0051766 0.00285161 0.00829127 0.00440451 0.00449903 -0.00514568 -0.00784355 -0.00120005 -0.00869926
internal_weight=650.634 598.582 383.204 215.378 181.742 171.604 92.4568 105.459 52.0515 79.1467 100.648 277.745 159.088 118.657 73.2467
internal_count=7851 7501 4871 2630 2516 2500 1656 1295 350 844 1129 3576 2472 1104 1585
is_linear=0
shrinkage=0.02


Tree=52
num_leaves=16
num_cat=0
split_feature=5 2 6 4 6 12 9 9 3 0 0 4 10 9 9
split_gain=12.5486 11.1702 9.84705 4.90968 7.74238 4.04232 5.06353 5.30425 4.52394 3.90219 7.71984 4.59697 4.12361 3.96004 4.31793
threshold=1.0000000180025095e-35 1.0000000180025095e-35 -2.5829319601860092 1.0000000180025095e-35 -0.28998215771037145 0.054754697499758177 -1.2945092424454654 0.10024838987905453 -0.67643267676104302 -0.55703907599509084 0.62103723503931119 -0.37250280890282589 -1.9494182483350013 -1.0620496370580452 1.378776219509865
decision_type=2 2 2 2 2 2 2 2 2 2 2 2 2 2 2
left_child=2 -2 -1 4 9 -5 -7 8 -8 13 12 -12 -11 -4 -15
right_child=1 -3 3 5 -6 6 7 -9 -10 10 11 -13 -14 14 -16
